=== Run information ===

Scheme:weka.classifiers.trees.J48 -C 0.25 -M 2
Relation:     Data-weka.filters.unsupervised.attribute.StringToWordVector-R1-W1000-prune-rate-1.0-C-T-I-N0-L-S-stemmerweka.core.stemmers.LovinsStemmer-M1-O-tokenizerweka.core.tokenizers.NGramTokenizer -delimiters " \r\n\t.,;:\'\"()?!" -max 1 -min 1-weka.filters.unsupervised.attribute.Remove-V-R1,406,958,538,984,951,668,451,580,87,262,886,981,123,91,37,338,55,727,376,750,983,737,756,381,928,603,687,858,685,911,263,61,258,269,642,865
Instances:    20918
Attributes:   37
              Polarity
              great
              wast
              lov
              worst
              wa
              poor
              hor
              mone
              awesom
              disappoint
              ter
              work
              bor
              bad
              addict
              fantas
              amaz
              rent
              frustr
              rpg
              wors
              return
              sam
              gam
              unfortun
              noth
              produc
              stupid
              problem
              tr
              disappointm
              anno
              didnt
              dog
              perfect
              support
Test mode:split 75.0% train, remainder test

=== Classifier model (full training set) ===

J48 pruned tree
------------------

worst <= 0
|   wast <= 0
|   |   poor <= 0
|   |   |   hor <= 0
|   |   |   |   ter <= 0
|   |   |   |   |   disappoint <= 0
|   |   |   |   |   |   return <= 0
|   |   |   |   |   |   |   awesom <= 0
|   |   |   |   |   |   |   |   addict <= 0
|   |   |   |   |   |   |   |   |   fantas <= 0
|   |   |   |   |   |   |   |   |   |   lov <= 0
|   |   |   |   |   |   |   |   |   |   |   unfortun <= 0
|   |   |   |   |   |   |   |   |   |   |   |   support <= 0
|   |   |   |   |   |   |   |   |   |   |   |   |   great <= 0
|   |   |   |   |   |   |   |   |   |   |   |   |   |   disappointm <= 0
|   |   |   |   |   |   |   |   |   |   |   |   |   |   |   stupid <= 0
|   |   |   |   |   |   |   |   |   |   |   |   |   |   |   |   amaz <= 0
|   |   |   |   |   |   |   |   |   |   |   |   |   |   |   |   |   tr <= 0
|   |   |   |   |   |   |   |   |   |   |   |   |   |   |   |   |   |   perfect <= 0
|   |   |   |   |   |   |   |   |   |   |   |   |   |   |   |   |   |   |   bor <= 0
|   |   |   |   |   |   |   |   |   |   |   |   |   |   |   |   |   |   |   |   rpg <= 0
|   |   |   |   |   |   |   |   |   |   |   |   |   |   |   |   |   |   |   |   |   frustr <= 0
|   |   |   |   |   |   |   |   |   |   |   |   |   |   |   |   |   |   |   |   |   |   noth <= 0
|   |   |   |   |   |   |   |   |   |   |   |   |   |   |   |   |   |   |   |   |   |   |   work <= 0
|   |   |   |   |   |   |   |   |   |   |   |   |   |   |   |   |   |   |   |   |   |   |   |   dog <= 4.203151
|   |   |   |   |   |   |   |   |   |   |   |   |   |   |   |   |   |   |   |   |   |   |   |   |   wors <= 0
|   |   |   |   |   |   |   |   |   |   |   |   |   |   |   |   |   |   |   |   |   |   |   |   |   |   rent <= 0
|   |   |   |   |   |   |   |   |   |   |   |   |   |   |   |   |   |   |   |   |   |   |   |   |   |   |   anno <= 0
|   |   |   |   |   |   |   |   |   |   |   |   |   |   |   |   |   |   |   |   |   |   |   |   |   |   |   |   mone <= 0
|   |   |   |   |   |   |   |   |   |   |   |   |   |   |   |   |   |   |   |   |   |   |   |   |   |   |   |   |   bad <= 0
|   |   |   |   |   |   |   |   |   |   |   |   |   |   |   |   |   |   |   |   |   |   |   |   |   |   |   |   |   |   gam <= 0
|   |   |   |   |   |   |   |   |   |   |   |   |   |   |   |   |   |   |   |   |   |   |   |   |   |   |   |   |   |   |   sam <= 0
|   |   |   |   |   |   |   |   |   |   |   |   |   |   |   |   |   |   |   |   |   |   |   |   |   |   |   |   |   |   |   |   didnt <= 0
|   |   |   |   |   |   |   |   |   |   |   |   |   |   |   |   |   |   |   |   |   |   |   |   |   |   |   |   |   |   |   |   |   produc <= 0
|   |   |   |   |   |   |   |   |   |   |   |   |   |   |   |   |   |   |   |   |   |   |   |   |   |   |   |   |   |   |   |   |   |   problem <= 0
|   |   |   |   |   |   |   |   |   |   |   |   |   |   |   |   |   |   |   |   |   |   |   |   |   |   |   |   |   |   |   |   |   |   |   wa <= 0: Like (705.0/345.0)
|   |   |   |   |   |   |   |   |   |   |   |   |   |   |   |   |   |   |   |   |   |   |   |   |   |   |   |   |   |   |   |   |   |   |   wa > 0: NotLike (183.0/75.0)
|   |   |   |   |   |   |   |   |   |   |   |   |   |   |   |   |   |   |   |   |   |   |   |   |   |   |   |   |   |   |   |   |   |   problem > 0: NotLike (30.0/10.0)
|   |   |   |   |   |   |   |   |   |   |   |   |   |   |   |   |   |   |   |   |   |   |   |   |   |   |   |   |   |   |   |   |   produc > 0: NotLike (93.0/31.0)
|   |   |   |   |   |   |   |   |   |   |   |   |   |   |   |   |   |   |   |   |   |   |   |   |   |   |   |   |   |   |   |   didnt > 0
|   |   |   |   |   |   |   |   |   |   |   |   |   |   |   |   |   |   |   |   |   |   |   |   |   |   |   |   |   |   |   |   |   wa <= 0.64768: NotLike (34.0/7.0)
|   |   |   |   |   |   |   |   |   |   |   |   |   |   |   |   |   |   |   |   |   |   |   |   |   |   |   |   |   |   |   |   |   wa > 0.64768: Like (8.0/3.0)
|   |   |   |   |   |   |   |   |   |   |   |   |   |   |   |   |   |   |   |   |   |   |   |   |   |   |   |   |   |   |   sam > 0: NotLike (50.0/11.0)
|   |   |   |   |   |   |   |   |   |   |   |   |   |   |   |   |   |   |   |   |   |   |   |   |   |   |   |   |   |   gam > 0
|   |   |   |   |   |   |   |   |   |   |   |   |   |   |   |   |   |   |   |   |   |   |   |   |   |   |   |   |   |   |   sam <= 0
|   |   |   |   |   |   |   |   |   |   |   |   |   |   |   |   |   |   |   |   |   |   |   |   |   |   |   |   |   |   |   |   dog <= 0
|   |   |   |   |   |   |   |   |   |   |   |   |   |   |   |   |   |   |   |   |   |   |   |   |   |   |   |   |   |   |   |   |   didnt <= 0
|   |   |   |   |   |   |   |   |   |   |   |   |   |   |   |   |   |   |   |   |   |   |   |   |   |   |   |   |   |   |   |   |   |   wa <= 0: Like (2253.0/856.0)
|   |   |   |   |   |   |   |   |   |   |   |   |   |   |   |   |   |   |   |   |   |   |   |   |   |   |   |   |   |   |   |   |   |   wa > 0
|   |   |   |   |   |   |   |   |   |   |   |   |   |   |   |   |   |   |   |   |   |   |   |   |   |   |   |   |   |   |   |   |   |   |   gam <= 0.270487
|   |   |   |   |   |   |   |   |   |   |   |   |   |   |   |   |   |   |   |   |   |   |   |   |   |   |   |   |   |   |   |   |   |   |   |   produc <= 0
|   |   |   |   |   |   |   |   |   |   |   |   |   |   |   |   |   |   |   |   |   |   |   |   |   |   |   |   |   |   |   |   |   |   |   |   |   wa <= 0.64768
|   |   |   |   |   |   |   |   |   |   |   |   |   |   |   |   |   |   |   |   |   |   |   |   |   |   |   |   |   |   |   |   |   |   |   |   |   |   gam <= 0.116492: NotLike (149.0/68.0)
|   |   |   |   |   |   |   |   |   |   |   |   |   |   |   |   |   |   |   |   |   |   |   |   |   |   |   |   |   |   |   |   |   |   |   |   |   |   gam > 0.116492: Like (272.0/124.0)
|   |   |   |   |   |   |   |   |   |   |   |   |   |   |   |   |   |   |   |   |   |   |   |   |   |   |   |   |   |   |   |   |   |   |   |   |   wa > 0.64768: NotLike (208.0/93.0)
|   |   |   |   |   |   |   |   |   |   |   |   |   |   |   |   |   |   |   |   |   |   |   |   |   |   |   |   |   |   |   |   |   |   |   |   produc > 0
|   |   |   |   |   |   |   |   |   |   |   |   |   |   |   |   |   |   |   |   |   |   |   |   |   |   |   |   |   |   |   |   |   |   |   |   |   wa <= 1.29536: NotLike (33.0/13.0)
|   |   |   |   |   |   |   |   |   |   |   |   |   |   |   |   |   |   |   |   |   |   |   |   |   |   |   |   |   |   |   |   |   |   |   |   |   wa > 1.29536: Like (3.0)
|   |   |   |   |   |   |   |   |   |   |   |   |   |   |   |   |   |   |   |   |   |   |   |   |   |   |   |   |   |   |   |   |   |   |   gam > 0.270487
|   |   |   |   |   |   |   |   |   |   |   |   |   |   |   |   |   |   |   |   |   |   |   |   |   |   |   |   |   |   |   |   |   |   |   |   problem <= 0: Like (105.0/35.0)
|   |   |   |   |   |   |   |   |   |   |   |   |   |   |   |   |   |   |   |   |   |   |   |   |   |   |   |   |   |   |   |   |   |   |   |   problem > 0
|   |   |   |   |   |   |   |   |   |   |   |   |   |   |   |   |   |   |   |   |   |   |   |   |   |   |   |   |   |   |   |   |   |   |   |   |   wa <= 0.64768: Like (8.0/3.0)
|   |   |   |   |   |   |   |   |   |   |   |   |   |   |   |   |   |   |   |   |   |   |   |   |   |   |   |   |   |   |   |   |   |   |   |   |   wa > 0.64768: NotLike (7.0/1.0)
|   |   |   |   |   |   |   |   |   |   |   |   |   |   |   |   |   |   |   |   |   |   |   |   |   |   |   |   |   |   |   |   |   didnt > 0
|   |   |   |   |   |   |   |   |   |   |   |   |   |   |   |   |   |   |   |   |   |   |   |   |   |   |   |   |   |   |   |   |   |   gam <= 0.270487: NotLike (106.0/42.0)
|   |   |   |   |   |   |   |   |   |   |   |   |   |   |   |   |   |   |   |   |   |   |   |   |   |   |   |   |   |   |   |   |   |   gam > 0.270487: Like (31.0/9.0)
|   |   |   |   |   |   |   |   |   |   |   |   |   |   |   |   |   |   |   |   |   |   |   |   |   |   |   |   |   |   |   |   dog > 0
|   |   |   |   |   |   |   |   |   |   |   |   |   |   |   |   |   |   |   |   |   |   |   |   |   |   |   |   |   |   |   |   |   wa <= 0.64768: Like (38.0/7.0)
|   |   |   |   |   |   |   |   |   |   |   |   |   |   |   |   |   |   |   |   |   |   |   |   |   |   |   |   |   |   |   |   |   wa > 0.64768
|   |   |   |   |   |   |   |   |   |   |   |   |   |   |   |   |   |   |   |   |   |   |   |   |   |   |   |   |   |   |   |   |   |   gam <= 0.270487: Like (5.0/1.0)
|   |   |   |   |   |   |   |   |   |   |   |   |   |   |   |   |   |   |   |   |   |   |   |   |   |   |   |   |   |   |   |   |   |   gam > 0.270487: NotLike (3.0)
|   |   |   |   |   |   |   |   |   |   |   |   |   |   |   |   |   |   |   |   |   |   |   |   |   |   |   |   |   |   |   sam > 0
|   |   |   |   |   |   |   |   |   |   |   |   |   |   |   |   |   |   |   |   |   |   |   |   |   |   |   |   |   |   |   |   problem <= 0
|   |   |   |   |   |   |   |   |   |   |   |   |   |   |   |   |   |   |   |   |   |   |   |   |   |   |   |   |   |   |   |   |   didnt <= 0
|   |   |   |   |   |   |   |   |   |   |   |   |   |   |   |   |   |   |   |   |   |   |   |   |   |   |   |   |   |   |   |   |   |   gam <= 0.232985
|   |   |   |   |   |   |   |   |   |   |   |   |   |   |   |   |   |   |   |   |   |   |   |   |   |   |   |   |   |   |   |   |   |   |   gam <= 0.116492: Like (51.0/23.0)
|   |   |   |   |   |   |   |   |   |   |   |   |   |   |   |   |   |   |   |   |   |   |   |   |   |   |   |   |   |   |   |   |   |   |   gam > 0.116492: NotLike (84.0/32.0)
|   |   |   |   |   |   |   |   |   |   |   |   |   |   |   |   |   |   |   |   |   |   |   |   |   |   |   |   |   |   |   |   |   |   gam > 0.232985
|   |   |   |   |   |   |   |   |   |   |   |   |   |   |   |   |   |   |   |   |   |   |   |   |   |   |   |   |   |   |   |   |   |   |   wa <= 0: Like (42.0/14.0)
|   |   |   |   |   |   |   |   |   |   |   |   |   |   |   |   |   |   |   |   |   |   |   |   |   |   |   |   |   |   |   |   |   |   |   wa > 0
|   |   |   |   |   |   |   |   |   |   |   |   |   |   |   |   |   |   |   |   |   |   |   |   |   |   |   |   |   |   |   |   |   |   |   |   gam <= 0.327035: Like (23.0/8.0)
|   |   |   |   |   |   |   |   |   |   |   |   |   |   |   |   |   |   |   |   |   |   |   |   |   |   |   |   |   |   |   |   |   |   |   |   gam > 0.327035: NotLike (14.0/4.0)
|   |   |   |   |   |   |   |   |   |   |   |   |   |   |   |   |   |   |   |   |   |   |   |   |   |   |   |   |   |   |   |   |   didnt > 0
|   |   |   |   |   |   |   |   |   |   |   |   |   |   |   |   |   |   |   |   |   |   |   |   |   |   |   |   |   |   |   |   |   |   sam <= 1.46365: NotLike (13.0/5.0)
|   |   |   |   |   |   |   |   |   |   |   |   |   |   |   |   |   |   |   |   |   |   |   |   |   |   |   |   |   |   |   |   |   |   sam > 1.46365
|   |   |   |   |   |   |   |   |   |   |   |   |   |   |   |   |   |   |   |   |   |   |   |   |   |   |   |   |   |   |   |   |   |   |   wa <= 0.64768
|   |   |   |   |   |   |   |   |   |   |   |   |   |   |   |   |   |   |   |   |   |   |   |   |   |   |   |   |   |   |   |   |   |   |   |   gam <= 0.270487: NotLike (3.0)
|   |   |   |   |   |   |   |   |   |   |   |   |   |   |   |   |   |   |   |   |   |   |   |   |   |   |   |   |   |   |   |   |   |   |   |   gam > 0.270487: Like (3.0/1.0)
|   |   |   |   |   |   |   |   |   |   |   |   |   |   |   |   |   |   |   |   |   |   |   |   |   |   |   |   |   |   |   |   |   |   |   wa > 0.64768: Like (2.0)
|   |   |   |   |   |   |   |   |   |   |   |   |   |   |   |   |   |   |   |   |   |   |   |   |   |   |   |   |   |   |   |   problem > 0: NotLike (28.0/6.0)
|   |   |   |   |   |   |   |   |   |   |   |   |   |   |   |   |   |   |   |   |   |   |   |   |   |   |   |   |   bad > 0
|   |   |   |   |   |   |   |   |   |   |   |   |   |   |   |   |   |   |   |   |   |   |   |   |   |   |   |   |   |   didnt <= 0: NotLike (344.0/141.0)
|   |   |   |   |   |   |   |   |   |   |   |   |   |   |   |   |   |   |   |   |   |   |   |   |   |   |   |   |   |   didnt > 0
|   |   |   |   |   |   |   |   |   |   |   |   |   |   |   |   |   |   |   |   |   |   |   |   |   |   |   |   |   |   |   problem <= 0: NotLike (25.0/2.0)
|   |   |   |   |   |   |   |   |   |   |   |   |   |   |   |   |   |   |   |   |   |   |   |   |   |   |   |   |   |   |   problem > 0: Like (5.0/1.0)
|   |   |   |   |   |   |   |   |   |   |   |   |   |   |   |   |   |   |   |   |   |   |   |   |   |   |   |   mone > 0: NotLike (269.0/98.0)
|   |   |   |   |   |   |   |   |   |   |   |   |   |   |   |   |   |   |   |   |   |   |   |   |   |   |   anno > 0
|   |   |   |   |   |   |   |   |   |   |   |   |   |   |   |   |   |   |   |   |   |   |   |   |   |   |   |   sam <= 0
|   |   |   |   |   |   |   |   |   |   |   |   |   |   |   |   |   |   |   |   |   |   |   |   |   |   |   |   |   wa <= 0.64768
|   |   |   |   |   |   |   |   |   |   |   |   |   |   |   |   |   |   |   |   |   |   |   |   |   |   |   |   |   |   mone <= 0: NotLike (79.0/19.0)
|   |   |   |   |   |   |   |   |   |   |   |   |   |   |   |   |   |   |   |   |   |   |   |   |   |   |   |   |   |   mone > 0
|   |   |   |   |   |   |   |   |   |   |   |   |   |   |   |   |   |   |   |   |   |   |   |   |   |   |   |   |   |   |   mone <= 1.616817: Like (2.0)
|   |   |   |   |   |   |   |   |   |   |   |   |   |   |   |   |   |   |   |   |   |   |   |   |   |   |   |   |   |   |   mone > 1.616817: NotLike (2.0)
|   |   |   |   |   |   |   |   |   |   |   |   |   |   |   |   |   |   |   |   |   |   |   |   |   |   |   |   |   wa > 0.64768
|   |   |   |   |   |   |   |   |   |   |   |   |   |   |   |   |   |   |   |   |   |   |   |   |   |   |   |   |   |   problem <= 0
|   |   |   |   |   |   |   |   |   |   |   |   |   |   |   |   |   |   |   |   |   |   |   |   |   |   |   |   |   |   |   wa <= 1.29536
|   |   |   |   |   |   |   |   |   |   |   |   |   |   |   |   |   |   |   |   |   |   |   |   |   |   |   |   |   |   |   |   gam <= 0.270487: Like (6.0/1.0)
|   |   |   |   |   |   |   |   |   |   |   |   |   |   |   |   |   |   |   |   |   |   |   |   |   |   |   |   |   |   |   |   gam > 0.270487: NotLike (4.0)
|   |   |   |   |   |   |   |   |   |   |   |   |   |   |   |   |   |   |   |   |   |   |   |   |   |   |   |   |   |   |   wa > 1.29536: NotLike (4.0)
|   |   |   |   |   |   |   |   |   |   |   |   |   |   |   |   |   |   |   |   |   |   |   |   |   |   |   |   |   |   problem > 0: Like (5.0/1.0)
|   |   |   |   |   |   |   |   |   |   |   |   |   |   |   |   |   |   |   |   |   |   |   |   |   |   |   |   sam > 0
|   |   |   |   |   |   |   |   |   |   |   |   |   |   |   |   |   |   |   |   |   |   |   |   |   |   |   |   |   wa <= 0: Like (9.0/3.0)
|   |   |   |   |   |   |   |   |   |   |   |   |   |   |   |   |   |   |   |   |   |   |   |   |   |   |   |   |   wa > 0: NotLike (8.0/1.0)
|   |   |   |   |   |   |   |   |   |   |   |   |   |   |   |   |   |   |   |   |   |   |   |   |   |   rent > 0: NotLike (183.0/55.0)
|   |   |   |   |   |   |   |   |   |   |   |   |   |   |   |   |   |   |   |   |   |   |   |   |   wors > 0
|   |   |   |   |   |   |   |   |   |   |   |   |   |   |   |   |   |   |   |   |   |   |   |   |   |   gam <= 0.349477: NotLike (47.0/6.0)
|   |   |   |   |   |   |   |   |   |   |   |   |   |   |   |   |   |   |   |   |   |   |   |   |   |   gam > 0.349477: Like (3.0/1.0)
|   |   |   |   |   |   |   |   |   |   |   |   |   |   |   |   |   |   |   |   |   |   |   |   dog > 4.203151: Like (25.0/1.0)
|   |   |   |   |   |   |   |   |   |   |   |   |   |   |   |   |   |   |   |   |   |   |   work > 0
|   |   |   |   |   |   |   |   |   |   |   |   |   |   |   |   |   |   |   |   |   |   |   |   gam <= 0.116492: NotLike (537.0/156.0)
|   |   |   |   |   |   |   |   |   |   |   |   |   |   |   |   |   |   |   |   |   |   |   |   gam > 0.116492
|   |   |   |   |   |   |   |   |   |   |   |   |   |   |   |   |   |   |   |   |   |   |   |   |   mone <= 0
|   |   |   |   |   |   |   |   |   |   |   |   |   |   |   |   |   |   |   |   |   |   |   |   |   |   produc <= 0
|   |   |   |   |   |   |   |   |   |   |   |   |   |   |   |   |   |   |   |   |   |   |   |   |   |   |   sam <= 0
|   |   |   |   |   |   |   |   |   |   |   |   |   |   |   |   |   |   |   |   |   |   |   |   |   |   |   |   work <= 1.30876
|   |   |   |   |   |   |   |   |   |   |   |   |   |   |   |   |   |   |   |   |   |   |   |   |   |   |   |   |   gam <= 0.349477: Like (171.0/78.0)
|   |   |   |   |   |   |   |   |   |   |   |   |   |   |   |   |   |   |   |   |   |   |   |   |   |   |   |   |   gam > 0.349477
|   |   |   |   |   |   |   |   |   |   |   |   |   |   |   |   |   |   |   |   |   |   |   |   |   |   |   |   |   |   gam <= 0.431073: NotLike (15.0/2.0)
|   |   |   |   |   |   |   |   |   |   |   |   |   |   |   |   |   |   |   |   |   |   |   |   |   |   |   |   |   |   gam > 0.431073: Like (3.0/1.0)
|   |   |   |   |   |   |   |   |   |   |   |   |   |   |   |   |   |   |   |   |   |   |   |   |   |   |   |   work > 1.30876
|   |   |   |   |   |   |   |   |   |   |   |   |   |   |   |   |   |   |   |   |   |   |   |   |   |   |   |   |   work <= 2.617519: NotLike (42.0/14.0)
|   |   |   |   |   |   |   |   |   |   |   |   |   |   |   |   |   |   |   |   |   |   |   |   |   |   |   |   |   work > 2.617519: Like (3.0)
|   |   |   |   |   |   |   |   |   |   |   |   |   |   |   |   |   |   |   |   |   |   |   |   |   |   |   sam > 0
|   |   |   |   |   |   |   |   |   |   |   |   |   |   |   |   |   |   |   |   |   |   |   |   |   |   |   |   work <= 3.038846: NotLike (27.0/9.0)
|   |   |   |   |   |   |   |   |   |   |   |   |   |   |   |   |   |   |   |   |   |   |   |   |   |   |   |   work > 3.038846: Like (2.0)
|   |   |   |   |   |   |   |   |   |   |   |   |   |   |   |   |   |   |   |   |   |   |   |   |   |   produc > 0: NotLike (19.0/7.0)
|   |   |   |   |   |   |   |   |   |   |   |   |   |   |   |   |   |   |   |   |   |   |   |   |   mone > 0
|   |   |   |   |   |   |   |   |   |   |   |   |   |   |   |   |   |   |   |   |   |   |   |   |   |   problem <= 0: NotLike (30.0/8.0)
|   |   |   |   |   |   |   |   |   |   |   |   |   |   |   |   |   |   |   |   |   |   |   |   |   |   problem > 0: Like (8.0/2.0)
|   |   |   |   |   |   |   |   |   |   |   |   |   |   |   |   |   |   |   |   |   |   noth > 0: NotLike (272.0/84.0)
|   |   |   |   |   |   |   |   |   |   |   |   |   |   |   |   |   |   |   |   |   frustr > 0
|   |   |   |   |   |   |   |   |   |   |   |   |   |   |   |   |   |   |   |   |   |   gam <= 0.369272: NotLike (216.0/50.0)
|   |   |   |   |   |   |   |   |   |   |   |   |   |   |   |   |   |   |   |   |   |   gam > 0.369272
|   |   |   |   |   |   |   |   |   |   |   |   |   |   |   |   |   |   |   |   |   |   |   wa <= 1.29536
|   |   |   |   |   |   |   |   |   |   |   |   |   |   |   |   |   |   |   |   |   |   |   |   sam <= 1.46365: Like (16.0/2.0)
|   |   |   |   |   |   |   |   |   |   |   |   |   |   |   |   |   |   |   |   |   |   |   |   sam > 1.46365: NotLike (3.0/1.0)
|   |   |   |   |   |   |   |   |   |   |   |   |   |   |   |   |   |   |   |   |   |   |   wa > 1.29536: NotLike (3.0)
|   |   |   |   |   |   |   |   |   |   |   |   |   |   |   |   |   |   |   |   rpg > 0
|   |   |   |   |   |   |   |   |   |   |   |   |   |   |   |   |   |   |   |   |   rent <= 0
|   |   |   |   |   |   |   |   |   |   |   |   |   |   |   |   |   |   |   |   |   |   didnt <= 0
|   |   |   |   |   |   |   |   |   |   |   |   |   |   |   |   |   |   |   |   |   |   |   wa <= 0: Like (128.0/25.0)
|   |   |   |   |   |   |   |   |   |   |   |   |   |   |   |   |   |   |   |   |   |   |   wa > 0
|   |   |   |   |   |   |   |   |   |   |   |   |   |   |   |   |   |   |   |   |   |   |   |   work <= 0
|   |   |   |   |   |   |   |   |   |   |   |   |   |   |   |   |   |   |   |   |   |   |   |   |   gam <= 0.232985
|   |   |   |   |   |   |   |   |   |   |   |   |   |   |   |   |   |   |   |   |   |   |   |   |   |   wa <= 1.29536: Like (27.0/4.0)
|   |   |   |   |   |   |   |   |   |   |   |   |   |   |   |   |   |   |   |   |   |   |   |   |   |   wa > 1.29536
|   |   |   |   |   |   |   |   |   |   |   |   |   |   |   |   |   |   |   |   |   |   |   |   |   |   |   gam <= 0.184636: NotLike (2.0)
|   |   |   |   |   |   |   |   |   |   |   |   |   |   |   |   |   |   |   |   |   |   |   |   |   |   |   gam > 0.184636: Like (4.0/1.0)
|   |   |   |   |   |   |   |   |   |   |   |   |   |   |   |   |   |   |   |   |   |   |   |   |   gam > 0.232985
|   |   |   |   |   |   |   |   |   |   |   |   |   |   |   |   |   |   |   |   |   |   |   |   |   |   rpg <= 1.96241: NotLike (19.0/7.0)
|   |   |   |   |   |   |   |   |   |   |   |   |   |   |   |   |   |   |   |   |   |   |   |   |   |   rpg > 1.96241: Like (9.0/2.0)
|   |   |   |   |   |   |   |   |   |   |   |   |   |   |   |   |   |   |   |   |   |   |   |   work > 0
|   |   |   |   |   |   |   |   |   |   |   |   |   |   |   |   |   |   |   |   |   |   |   |   |   gam <= 0.232985: NotLike (3.0)
|   |   |   |   |   |   |   |   |   |   |   |   |   |   |   |   |   |   |   |   |   |   |   |   |   gam > 0.232985: Like (4.0/1.0)
|   |   |   |   |   |   |   |   |   |   |   |   |   |   |   |   |   |   |   |   |   |   didnt > 0
|   |   |   |   |   |   |   |   |   |   |   |   |   |   |   |   |   |   |   |   |   |   |   rpg <= 3.110347
|   |   |   |   |   |   |   |   |   |   |   |   |   |   |   |   |   |   |   |   |   |   |   |   gam <= 0.270487
|   |   |   |   |   |   |   |   |   |   |   |   |   |   |   |   |   |   |   |   |   |   |   |   |   wa <= 0: Like (2.0)
|   |   |   |   |   |   |   |   |   |   |   |   |   |   |   |   |   |   |   |   |   |   |   |   |   wa > 0: NotLike (5.0)
|   |   |   |   |   |   |   |   |   |   |   |   |   |   |   |   |   |   |   |   |   |   |   |   gam > 0.270487: Like (4.0)
|   |   |   |   |   |   |   |   |   |   |   |   |   |   |   |   |   |   |   |   |   |   |   rpg > 3.110347: NotLike (3.0)
|   |   |   |   |   |   |   |   |   |   |   |   |   |   |   |   |   |   |   |   |   rent > 0
|   |   |   |   |   |   |   |   |   |   |   |   |   |   |   |   |   |   |   |   |   |   wa <= 0.64768: NotLike (8.0/1.0)
|   |   |   |   |   |   |   |   |   |   |   |   |   |   |   |   |   |   |   |   |   |   wa > 0.64768: Like (4.0/1.0)
|   |   |   |   |   |   |   |   |   |   |   |   |   |   |   |   |   |   |   bor > 0
|   |   |   |   |   |   |   |   |   |   |   |   |   |   |   |   |   |   |   |   wa <= 0
|   |   |   |   |   |   |   |   |   |   |   |   |   |   |   |   |   |   |   |   |   gam <= 0.184636: NotLike (165.0/40.0)
|   |   |   |   |   |   |   |   |   |   |   |   |   |   |   |   |   |   |   |   |   gam > 0.184636
|   |   |   |   |   |   |   |   |   |   |   |   |   |   |   |   |   |   |   |   |   |   rent <= 0
|   |   |   |   |   |   |   |   |   |   |   |   |   |   |   |   |   |   |   |   |   |   |   bor <= 1.796697
|   |   |   |   |   |   |   |   |   |   |   |   |   |   |   |   |   |   |   |   |   |   |   |   mone <= 0
|   |   |   |   |   |   |   |   |   |   |   |   |   |   |   |   |   |   |   |   |   |   |   |   |   dog <= 0
|   |   |   |   |   |   |   |   |   |   |   |   |   |   |   |   |   |   |   |   |   |   |   |   |   |   sam <= 0
|   |   |   |   |   |   |   |   |   |   |   |   |   |   |   |   |   |   |   |   |   |   |   |   |   |   |   didnt <= 0: Like (87.0/35.0)
|   |   |   |   |   |   |   |   |   |   |   |   |   |   |   |   |   |   |   |   |   |   |   |   |   |   |   didnt > 0: NotLike (4.0/1.0)
|   |   |   |   |   |   |   |   |   |   |   |   |   |   |   |   |   |   |   |   |   |   |   |   |   |   sam > 0
|   |   |   |   |   |   |   |   |   |   |   |   |   |   |   |   |   |   |   |   |   |   |   |   |   |   |   gam <= 0.301128: NotLike (12.0/3.0)
|   |   |   |   |   |   |   |   |   |   |   |   |   |   |   |   |   |   |   |   |   |   |   |   |   |   |   gam > 0.301128: Like (4.0/1.0)
|   |   |   |   |   |   |   |   |   |   |   |   |   |   |   |   |   |   |   |   |   |   |   |   |   dog > 0
|   |   |   |   |   |   |   |   |   |   |   |   |   |   |   |   |   |   |   |   |   |   |   |   |   |   dog <= 4.203151: Like (4.0)
|   |   |   |   |   |   |   |   |   |   |   |   |   |   |   |   |   |   |   |   |   |   |   |   |   |   dog > 4.203151: NotLike (3.0)
|   |   |   |   |   |   |   |   |   |   |   |   |   |   |   |   |   |   |   |   |   |   |   |   mone > 0: NotLike (9.0/3.0)
|   |   |   |   |   |   |   |   |   |   |   |   |   |   |   |   |   |   |   |   |   |   |   bor > 1.796697
|   |   |   |   |   |   |   |   |   |   |   |   |   |   |   |   |   |   |   |   |   |   |   |   bor <= 2.847697: NotLike (15.0/3.0)
|   |   |   |   |   |   |   |   |   |   |   |   |   |   |   |   |   |   |   |   |   |   |   |   bor > 2.847697: Like (3.0/1.0)
|   |   |   |   |   |   |   |   |   |   |   |   |   |   |   |   |   |   |   |   |   |   rent > 0: NotLike (10.0/1.0)
|   |   |   |   |   |   |   |   |   |   |   |   |   |   |   |   |   |   |   |   wa > 0: NotLike (216.0/39.0)
|   |   |   |   |   |   |   |   |   |   |   |   |   |   |   |   |   |   perfect > 0
|   |   |   |   |   |   |   |   |   |   |   |   |   |   |   |   |   |   |   produc <= 0
|   |   |   |   |   |   |   |   |   |   |   |   |   |   |   |   |   |   |   |   bor <= 0
|   |   |   |   |   |   |   |   |   |   |   |   |   |   |   |   |   |   |   |   |   gam <= 0
|   |   |   |   |   |   |   |   |   |   |   |   |   |   |   |   |   |   |   |   |   |   work <= 2.074335
|   |   |   |   |   |   |   |   |   |   |   |   |   |   |   |   |   |   |   |   |   |   |   wa <= 0
|   |   |   |   |   |   |   |   |   |   |   |   |   |   |   |   |   |   |   |   |   |   |   |   perfect <= 2.124429: Like (16.0/4.0)
|   |   |   |   |   |   |   |   |   |   |   |   |   |   |   |   |   |   |   |   |   |   |   |   perfect > 2.124429: NotLike (2.0)
|   |   |   |   |   |   |   |   |   |   |   |   |   |   |   |   |   |   |   |   |   |   |   wa > 0: NotLike (11.0/4.0)
|   |   |   |   |   |   |   |   |   |   |   |   |   |   |   |   |   |   |   |   |   |   work > 2.074335: NotLike (4.0/1.0)
|   |   |   |   |   |   |   |   |   |   |   |   |   |   |   |   |   |   |   |   |   gam > 0: Like (179.0/38.0)
|   |   |   |   |   |   |   |   |   |   |   |   |   |   |   |   |   |   |   |   bor > 0
|   |   |   |   |   |   |   |   |   |   |   |   |   |   |   |   |   |   |   |   |   sam <= 0
|   |   |   |   |   |   |   |   |   |   |   |   |   |   |   |   |   |   |   |   |   |   wa <= 0: Like (3.0/1.0)
|   |   |   |   |   |   |   |   |   |   |   |   |   |   |   |   |   |   |   |   |   |   wa > 0: NotLike (7.0/1.0)
|   |   |   |   |   |   |   |   |   |   |   |   |   |   |   |   |   |   |   |   |   sam > 0: Like (2.0)
|   |   |   |   |   |   |   |   |   |   |   |   |   |   |   |   |   |   |   produc > 0
|   |   |   |   |   |   |   |   |   |   |   |   |   |   |   |   |   |   |   |   produc <= 1.949048
|   |   |   |   |   |   |   |   |   |   |   |   |   |   |   |   |   |   |   |   |   problem <= 0: Like (14.0/4.0)
|   |   |   |   |   |   |   |   |   |   |   |   |   |   |   |   |   |   |   |   |   problem > 0: NotLike (2.0)
|   |   |   |   |   |   |   |   |   |   |   |   |   |   |   |   |   |   |   |   produc > 1.949048: NotLike (5.0)
|   |   |   |   |   |   |   |   |   |   |   |   |   |   |   |   |   tr > 0: NotLike (367.0/95.0)
|   |   |   |   |   |   |   |   |   |   |   |   |   |   |   |   amaz > 0
|   |   |   |   |   |   |   |   |   |   |   |   |   |   |   |   |   rent <= 0
|   |   |   |   |   |   |   |   |   |   |   |   |   |   |   |   |   |   perfect <= 0
|   |   |   |   |   |   |   |   |   |   |   |   |   |   |   |   |   |   |   work <= 0: Like (216.0/48.0)
|   |   |   |   |   |   |   |   |   |   |   |   |   |   |   |   |   |   |   work > 0
|   |   |   |   |   |   |   |   |   |   |   |   |   |   |   |   |   |   |   |   bad <= 0: NotLike (23.0/9.0)
|   |   |   |   |   |   |   |   |   |   |   |   |   |   |   |   |   |   |   |   bad > 0: Like (2.0)
|   |   |   |   |   |   |   |   |   |   |   |   |   |   |   |   |   |   perfect > 0: Like (13.0)
|   |   |   |   |   |   |   |   |   |   |   |   |   |   |   |   |   rent > 0
|   |   |   |   |   |   |   |   |   |   |   |   |   |   |   |   |   |   bor <= 0
|   |   |   |   |   |   |   |   |   |   |   |   |   |   |   |   |   |   |   bad <= 0
|   |   |   |   |   |   |   |   |   |   |   |   |   |   |   |   |   |   |   |   didnt <= 0: Like (10.0/3.0)
|   |   |   |   |   |   |   |   |   |   |   |   |   |   |   |   |   |   |   |   didnt > 0: NotLike (3.0/1.0)
|   |   |   |   |   |   |   |   |   |   |   |   |   |   |   |   |   |   |   bad > 0: NotLike (2.0)
|   |   |   |   |   |   |   |   |   |   |   |   |   |   |   |   |   |   bor > 0: NotLike (3.0)
|   |   |   |   |   |   |   |   |   |   |   |   |   |   |   stupid > 0: NotLike (187.0/38.0)
|   |   |   |   |   |   |   |   |   |   |   |   |   |   disappointm > 0: NotLike (81.0/10.0)
|   |   |   |   |   |   |   |   |   |   |   |   |   great > 0
|   |   |   |   |   |   |   |   |   |   |   |   |   |   wors <= 0
|   |   |   |   |   |   |   |   |   |   |   |   |   |   |   rent <= 0
|   |   |   |   |   |   |   |   |   |   |   |   |   |   |   |   anno <= 0
|   |   |   |   |   |   |   |   |   |   |   |   |   |   |   |   |   bor <= 0
|   |   |   |   |   |   |   |   |   |   |   |   |   |   |   |   |   |   dog <= 4.203151
|   |   |   |   |   |   |   |   |   |   |   |   |   |   |   |   |   |   |   tr <= 0
|   |   |   |   |   |   |   |   |   |   |   |   |   |   |   |   |   |   |   |   work <= 1.30876
|   |   |   |   |   |   |   |   |   |   |   |   |   |   |   |   |   |   |   |   |   frustr <= 0
|   |   |   |   |   |   |   |   |   |   |   |   |   |   |   |   |   |   |   |   |   |   wa <= 0.64768
|   |   |   |   |   |   |   |   |   |   |   |   |   |   |   |   |   |   |   |   |   |   |   stupid <= 0
|   |   |   |   |   |   |   |   |   |   |   |   |   |   |   |   |   |   |   |   |   |   |   |   problem <= 0
|   |   |   |   |   |   |   |   |   |   |   |   |   |   |   |   |   |   |   |   |   |   |   |   |   produc <= 0: Like (1677.0/362.0)
|   |   |   |   |   |   |   |   |   |   |   |   |   |   |   |   |   |   |   |   |   |   |   |   |   produc > 0
|   |   |   |   |   |   |   |   |   |   |   |   |   |   |   |   |   |   |   |   |   |   |   |   |   |   great <= 0.920801
|   |   |   |   |   |   |   |   |   |   |   |   |   |   |   |   |   |   |   |   |   |   |   |   |   |   |   wa <= 0: Like (38.0/11.0)
|   |   |   |   |   |   |   |   |   |   |   |   |   |   |   |   |   |   |   |   |   |   |   |   |   |   |   wa > 0
|   |   |   |   |   |   |   |   |   |   |   |   |   |   |   |   |   |   |   |   |   |   |   |   |   |   |   |   gam <= 0.184636: NotLike (10.0/2.0)
|   |   |   |   |   |   |   |   |   |   |   |   |   |   |   |   |   |   |   |   |   |   |   |   |   |   |   |   gam > 0.184636
|   |   |   |   |   |   |   |   |   |   |   |   |   |   |   |   |   |   |   |   |   |   |   |   |   |   |   |   |   gam <= 0.327035: Like (5.0)
|   |   |   |   |   |   |   |   |   |   |   |   |   |   |   |   |   |   |   |   |   |   |   |   |   |   |   |   |   gam > 0.327035: NotLike (2.0)
|   |   |   |   |   |   |   |   |   |   |   |   |   |   |   |   |   |   |   |   |   |   |   |   |   |   great > 0.920801: Like (12.0/2.0)
|   |   |   |   |   |   |   |   |   |   |   |   |   |   |   |   |   |   |   |   |   |   |   |   problem > 0
|   |   |   |   |   |   |   |   |   |   |   |   |   |   |   |   |   |   |   |   |   |   |   |   |   sam <= 1.46365
|   |   |   |   |   |   |   |   |   |   |   |   |   |   |   |   |   |   |   |   |   |   |   |   |   |   bad <= 0: Like (127.0/45.0)
|   |   |   |   |   |   |   |   |   |   |   |   |   |   |   |   |   |   |   |   |   |   |   |   |   |   bad > 0
|   |   |   |   |   |   |   |   |   |   |   |   |   |   |   |   |   |   |   |   |   |   |   |   |   |   |   great <= 0.920801
|   |   |   |   |   |   |   |   |   |   |   |   |   |   |   |   |   |   |   |   |   |   |   |   |   |   |   |   gam <= 0.232985: Like (3.0)
|   |   |   |   |   |   |   |   |   |   |   |   |   |   |   |   |   |   |   |   |   |   |   |   |   |   |   |   gam > 0.232985: NotLike (7.0/1.0)
|   |   |   |   |   |   |   |   |   |   |   |   |   |   |   |   |   |   |   |   |   |   |   |   |   |   |   great > 0.920801: Like (7.0)
|   |   |   |   |   |   |   |   |   |   |   |   |   |   |   |   |   |   |   |   |   |   |   |   |   sam > 1.46365
|   |   |   |   |   |   |   |   |   |   |   |   |   |   |   |   |   |   |   |   |   |   |   |   |   |   gam <= 0.431073: NotLike (5.0)
|   |   |   |   |   |   |   |   |   |   |   |   |   |   |   |   |   |   |   |   |   |   |   |   |   |   gam > 0.431073: Like (2.0)
|   |   |   |   |   |   |   |   |   |   |   |   |   |   |   |   |   |   |   |   |   |   |   stupid > 0
|   |   |   |   |   |   |   |   |   |   |   |   |   |   |   |   |   |   |   |   |   |   |   |   noth <= 0
|   |   |   |   |   |   |   |   |   |   |   |   |   |   |   |   |   |   |   |   |   |   |   |   |   stupid <= 2.463982
|   |   |   |   |   |   |   |   |   |   |   |   |   |   |   |   |   |   |   |   |   |   |   |   |   |   sam <= 0: Like (17.0/4.0)
|   |   |   |   |   |   |   |   |   |   |   |   |   |   |   |   |   |   |   |   |   |   |   |   |   |   sam > 0
|   |   |   |   |   |   |   |   |   |   |   |   |   |   |   |   |   |   |   |   |   |   |   |   |   |   |   great <= 1.459435: NotLike (2.0)
|   |   |   |   |   |   |   |   |   |   |   |   |   |   |   |   |   |   |   |   |   |   |   |   |   |   |   great > 1.459435: Like (3.0/1.0)
|   |   |   |   |   |   |   |   |   |   |   |   |   |   |   |   |   |   |   |   |   |   |   |   |   stupid > 2.463982: NotLike (2.0)
|   |   |   |   |   |   |   |   |   |   |   |   |   |   |   |   |   |   |   |   |   |   |   |   noth > 0: NotLike (3.0)
|   |   |   |   |   |   |   |   |   |   |   |   |   |   |   |   |   |   |   |   |   |   wa > 0.64768
|   |   |   |   |   |   |   |   |   |   |   |   |   |   |   |   |   |   |   |   |   |   |   perfect <= 0
|   |   |   |   |   |   |   |   |   |   |   |   |   |   |   |   |   |   |   |   |   |   |   |   rpg <= 0
|   |   |   |   |   |   |   |   |   |   |   |   |   |   |   |   |   |   |   |   |   |   |   |   |   bad <= 0
|   |   |   |   |   |   |   |   |   |   |   |   |   |   |   |   |   |   |   |   |   |   |   |   |   |   didnt <= 0
|   |   |   |   |   |   |   |   |   |   |   |   |   |   |   |   |   |   |   |   |   |   |   |   |   |   |   sam <= 0: Like (166.0/59.0)
|   |   |   |   |   |   |   |   |   |   |   |   |   |   |   |   |   |   |   |   |   |   |   |   |   |   |   sam > 0
|   |   |   |   |   |   |   |   |   |   |   |   |   |   |   |   |   |   |   |   |   |   |   |   |   |   |   |   great <= 0.920801
|   |   |   |   |   |   |   |   |   |   |   |   |   |   |   |   |   |   |   |   |   |   |   |   |   |   |   |   |   gam <= 0.417621: NotLike (15.0/4.0)
|   |   |   |   |   |   |   |   |   |   |   |   |   |   |   |   |   |   |   |   |   |   |   |   |   |   |   |   |   gam > 0.417621: Like (3.0)
|   |   |   |   |   |   |   |   |   |   |   |   |   |   |   |   |   |   |   |   |   |   |   |   |   |   |   |   great > 0.920801: Like (2.0)
|   |   |   |   |   |   |   |   |   |   |   |   |   |   |   |   |   |   |   |   |   |   |   |   |   |   didnt > 0
|   |   |   |   |   |   |   |   |   |   |   |   |   |   |   |   |   |   |   |   |   |   |   |   |   |   |   mone <= 0
|   |   |   |   |   |   |   |   |   |   |   |   |   |   |   |   |   |   |   |   |   |   |   |   |   |   |   |   produc <= 0
|   |   |   |   |   |   |   |   |   |   |   |   |   |   |   |   |   |   |   |   |   |   |   |   |   |   |   |   |   problem <= 0
|   |   |   |   |   |   |   |   |   |   |   |   |   |   |   |   |   |   |   |   |   |   |   |   |   |   |   |   |   |   wa <= 1.026549
|   |   |   |   |   |   |   |   |   |   |   |   |   |   |   |   |   |   |   |   |   |   |   |   |   |   |   |   |   |   |   work <= 0: NotLike (3.0)
|   |   |   |   |   |   |   |   |   |   |   |   |   |   |   |   |   |   |   |   |   |   |   |   |   |   |   |   |   |   |   work > 0: Like (2.0)
|   |   |   |   |   |   |   |   |   |   |   |   |   |   |   |   |   |   |   |   |   |   |   |   |   |   |   |   |   |   wa > 1.026549: Like (8.0/2.0)
|   |   |   |   |   |   |   |   |   |   |   |   |   |   |   |   |   |   |   |   |   |   |   |   |   |   |   |   |   problem > 0: NotLike (3.0)
|   |   |   |   |   |   |   |   |   |   |   |   |   |   |   |   |   |   |   |   |   |   |   |   |   |   |   |   produc > 0: NotLike (2.0)
|   |   |   |   |   |   |   |   |   |   |   |   |   |   |   |   |   |   |   |   |   |   |   |   |   |   |   mone > 0: NotLike (4.0)
|   |   |   |   |   |   |   |   |   |   |   |   |   |   |   |   |   |   |   |   |   |   |   |   |   bad > 0
|   |   |   |   |   |   |   |   |   |   |   |   |   |   |   |   |   |   |   |   |   |   |   |   |   |   stupid <= 0
|   |   |   |   |   |   |   |   |   |   |   |   |   |   |   |   |   |   |   |   |   |   |   |   |   |   |   noth <= 0
|   |   |   |   |   |   |   |   |   |   |   |   |   |   |   |   |   |   |   |   |   |   |   |   |   |   |   |   work <= 0
|   |   |   |   |   |   |   |   |   |   |   |   |   |   |   |   |   |   |   |   |   |   |   |   |   |   |   |   |   didnt <= 0
|   |   |   |   |   |   |   |   |   |   |   |   |   |   |   |   |   |   |   |   |   |   |   |   |   |   |   |   |   |   gam <= 0.327035: NotLike (17.0/4.0)
|   |   |   |   |   |   |   |   |   |   |   |   |   |   |   |   |   |   |   |   |   |   |   |   |   |   |   |   |   |   gam > 0.327035: Like (4.0)
|   |   |   |   |   |   |   |   |   |   |   |   |   |   |   |   |   |   |   |   |   |   |   |   |   |   |   |   |   didnt > 0
|   |   |   |   |   |   |   |   |   |   |   |   |   |   |   |   |   |   |   |   |   |   |   |   |   |   |   |   |   |   gam <= 0.349477: Like (2.0)
|   |   |   |   |   |   |   |   |   |   |   |   |   |   |   |   |   |   |   |   |   |   |   |   |   |   |   |   |   |   gam > 0.349477: NotLike (3.0/1.0)
|   |   |   |   |   |   |   |   |   |   |   |   |   |   |   |   |   |   |   |   |   |   |   |   |   |   |   |   work > 0: NotLike (3.0)
|   |   |   |   |   |   |   |   |   |   |   |   |   |   |   |   |   |   |   |   |   |   |   |   |   |   |   noth > 0: NotLike (5.0)
|   |   |   |   |   |   |   |   |   |   |   |   |   |   |   |   |   |   |   |   |   |   |   |   |   |   stupid > 0: Like (2.0)
|   |   |   |   |   |   |   |   |   |   |   |   |   |   |   |   |   |   |   |   |   |   |   |   rpg > 0
|   |   |   |   |   |   |   |   |   |   |   |   |   |   |   |   |   |   |   |   |   |   |   |   |   didnt <= 0: Like (17.0/1.0)
|   |   |   |   |   |   |   |   |   |   |   |   |   |   |   |   |   |   |   |   |   |   |   |   |   didnt > 0
|   |   |   |   |   |   |   |   |   |   |   |   |   |   |   |   |   |   |   |   |   |   |   |   |   |   wa <= 1.503867: Like (3.0/1.0)
|   |   |   |   |   |   |   |   |   |   |   |   |   |   |   |   |   |   |   |   |   |   |   |   |   |   wa > 1.503867: NotLike (2.0)
|   |   |   |   |   |   |   |   |   |   |   |   |   |   |   |   |   |   |   |   |   |   |   perfect > 0: Like (21.0/3.0)
|   |   |   |   |   |   |   |   |   |   |   |   |   |   |   |   |   |   |   |   |   frustr > 0
|   |   |   |   |   |   |   |   |   |   |   |   |   |   |   |   |   |   |   |   |   |   work <= 0
|   |   |   |   |   |   |   |   |   |   |   |   |   |   |   |   |   |   |   |   |   |   |   great <= 1.459435
|   |   |   |   |   |   |   |   |   |   |   |   |   |   |   |   |   |   |   |   |   |   |   |   gam <= 0.327035
|   |   |   |   |   |   |   |   |   |   |   |   |   |   |   |   |   |   |   |   |   |   |   |   |   wa <= 1.026549
|   |   |   |   |   |   |   |   |   |   |   |   |   |   |   |   |   |   |   |   |   |   |   |   |   |   gam <= 0.270487: Like (31.0/12.0)
|   |   |   |   |   |   |   |   |   |   |   |   |   |   |   |   |   |   |   |   |   |   |   |   |   |   gam > 0.270487: NotLike (6.0/1.0)
|   |   |   |   |   |   |   |   |   |   |   |   |   |   |   |   |   |   |   |   |   |   |   |   |   wa > 1.026549: NotLike (7.0/1.0)
|   |   |   |   |   |   |   |   |   |   |   |   |   |   |   |   |   |   |   |   |   |   |   |   gam > 0.327035: Like (17.0/4.0)
|   |   |   |   |   |   |   |   |   |   |   |   |   |   |   |   |   |   |   |   |   |   |   great > 1.459435: Like (7.0/2.0)
|   |   |   |   |   |   |   |   |   |   |   |   |   |   |   |   |   |   |   |   |   |   work > 0: NotLike (14.0/6.0)
|   |   |   |   |   |   |   |   |   |   |   |   |   |   |   |   |   |   |   |   work > 1.30876
|   |   |   |   |   |   |   |   |   |   |   |   |   |   |   |   |   |   |   |   |   perfect <= 0
|   |   |   |   |   |   |   |   |   |   |   |   |   |   |   |   |   |   |   |   |   |   great <= 1.841602
|   |   |   |   |   |   |   |   |   |   |   |   |   |   |   |   |   |   |   |   |   |   |   work <= 3.038846
|   |   |   |   |   |   |   |   |   |   |   |   |   |   |   |   |   |   |   |   |   |   |   |   noth <= 0
|   |   |   |   |   |   |   |   |   |   |   |   |   |   |   |   |   |   |   |   |   |   |   |   |   gam <= 0.270487
|   |   |   |   |   |   |   |   |   |   |   |   |   |   |   |   |   |   |   |   |   |   |   |   |   |   gam <= 0.116492: NotLike (37.0/13.0)
|   |   |   |   |   |   |   |   |   |   |   |   |   |   |   |   |   |   |   |   |   |   |   |   |   |   gam > 0.116492: Like (17.0/6.0)
|   |   |   |   |   |   |   |   |   |   |   |   |   |   |   |   |   |   |   |   |   |   |   |   |   gam > 0.270487: NotLike (12.0/2.0)
|   |   |   |   |   |   |   |   |   |   |   |   |   |   |   |   |   |   |   |   |   |   |   |   noth > 0: Like (5.0/1.0)
|   |   |   |   |   |   |   |   |   |   |   |   |   |   |   |   |   |   |   |   |   |   |   work > 3.038846: NotLike (4.0)
|   |   |   |   |   |   |   |   |   |   |   |   |   |   |   |   |   |   |   |   |   |   great > 1.841602: Like (4.0)
|   |   |   |   |   |   |   |   |   |   |   |   |   |   |   |   |   |   |   |   |   perfect > 0: Like (5.0)
|   |   |   |   |   |   |   |   |   |   |   |   |   |   |   |   |   |   |   tr > 0
|   |   |   |   |   |   |   |   |   |   |   |   |   |   |   |   |   |   |   |   stupid <= 0
|   |   |   |   |   |   |   |   |   |   |   |   |   |   |   |   |   |   |   |   |   amaz <= 0
|   |   |   |   |   |   |   |   |   |   |   |   |   |   |   |   |   |   |   |   |   |   great <= 1.841602
|   |   |   |   |   |   |   |   |   |   |   |   |   |   |   |   |   |   |   |   |   |   |   gam <= 0: NotLike (10.0)
|   |   |   |   |   |   |   |   |   |   |   |   |   |   |   |   |   |   |   |   |   |   |   gam > 0
|   |   |   |   |   |   |   |   |   |   |   |   |   |   |   |   |   |   |   |   |   |   |   |   noth <= 0
|   |   |   |   |   |   |   |   |   |   |   |   |   |   |   |   |   |   |   |   |   |   |   |   |   problem <= 0
|   |   |   |   |   |   |   |   |   |   |   |   |   |   |   |   |   |   |   |   |   |   |   |   |   |   tr <= 2.005909
|   |   |   |   |   |   |   |   |   |   |   |   |   |   |   |   |   |   |   |   |   |   |   |   |   |   |   gam <= 0.327035
|   |   |   |   |   |   |   |   |   |   |   |   |   |   |   |   |   |   |   |   |   |   |   |   |   |   |   |   sam <= 0
|   |   |   |   |   |   |   |   |   |   |   |   |   |   |   |   |   |   |   |   |   |   |   |   |   |   |   |   |   great <= 0.920801
|   |   |   |   |   |   |   |   |   |   |   |   |   |   |   |   |   |   |   |   |   |   |   |   |   |   |   |   |   |   work <= 0: Like (15.0/5.0)
|   |   |   |   |   |   |   |   |   |   |   |   |   |   |   |   |   |   |   |   |   |   |   |   |   |   |   |   |   |   work > 0: NotLike (6.0/1.0)
|   |   |   |   |   |   |   |   |   |   |   |   |   |   |   |   |   |   |   |   |   |   |   |   |   |   |   |   |   great > 0.920801: Like (9.0/2.0)
|   |   |   |   |   |   |   |   |   |   |   |   |   |   |   |   |   |   |   |   |   |   |   |   |   |   |   |   sam > 0: NotLike (4.0/1.0)
|   |   |   |   |   |   |   |   |   |   |   |   |   |   |   |   |   |   |   |   |   |   |   |   |   |   |   gam > 0.327035: Like (9.0)
|   |   |   |   |   |   |   |   |   |   |   |   |   |   |   |   |   |   |   |   |   |   |   |   |   |   tr > 2.005909
|   |   |   |   |   |   |   |   |   |   |   |   |   |   |   |   |   |   |   |   |   |   |   |   |   |   |   great <= 0.920801
|   |   |   |   |   |   |   |   |   |   |   |   |   |   |   |   |   |   |   |   |   |   |   |   |   |   |   |   tr <= 3.179291: Like (4.0/1.0)
|   |   |   |   |   |   |   |   |   |   |   |   |   |   |   |   |   |   |   |   |   |   |   |   |   |   |   |   tr > 3.179291: NotLike (2.0)
|   |   |   |   |   |   |   |   |   |   |   |   |   |   |   |   |   |   |   |   |   |   |   |   |   |   |   great > 0.920801: NotLike (3.0)
|   |   |   |   |   |   |   |   |   |   |   |   |   |   |   |   |   |   |   |   |   |   |   |   |   problem > 0: NotLike (11.0/2.0)
|   |   |   |   |   |   |   |   |   |   |   |   |   |   |   |   |   |   |   |   |   |   |   |   noth > 0
|   |   |   |   |   |   |   |   |   |   |   |   |   |   |   |   |   |   |   |   |   |   |   |   |   great <= 0.920801: NotLike (6.0)
|   |   |   |   |   |   |   |   |   |   |   |   |   |   |   |   |   |   |   |   |   |   |   |   |   great > 0.920801
|   |   |   |   |   |   |   |   |   |   |   |   |   |   |   |   |   |   |   |   |   |   |   |   |   |   work <= 0: NotLike (2.0)
|   |   |   |   |   |   |   |   |   |   |   |   |   |   |   |   |   |   |   |   |   |   |   |   |   |   work > 0: Like (2.0)
|   |   |   |   |   |   |   |   |   |   |   |   |   |   |   |   |   |   |   |   |   |   great > 1.841602: Like (5.0)
|   |   |   |   |   |   |   |   |   |   |   |   |   |   |   |   |   |   |   |   |   amaz > 0: Like (8.0)
|   |   |   |   |   |   |   |   |   |   |   |   |   |   |   |   |   |   |   |   stupid > 0: NotLike (6.0)
|   |   |   |   |   |   |   |   |   |   |   |   |   |   |   |   |   |   dog > 4.203151: Like (26.0)
|   |   |   |   |   |   |   |   |   |   |   |   |   |   |   |   |   bor > 0
|   |   |   |   |   |   |   |   |   |   |   |   |   |   |   |   |   |   work <= 0
|   |   |   |   |   |   |   |   |   |   |   |   |   |   |   |   |   |   |   bor <= 1.796697
|   |   |   |   |   |   |   |   |   |   |   |   |   |   |   |   |   |   |   |   amaz <= 0
|   |   |   |   |   |   |   |   |   |   |   |   |   |   |   |   |   |   |   |   |   noth <= 0
|   |   |   |   |   |   |   |   |   |   |   |   |   |   |   |   |   |   |   |   |   |   problem <= 0
|   |   |   |   |   |   |   |   |   |   |   |   |   |   |   |   |   |   |   |   |   |   |   sam <= 0
|   |   |   |   |   |   |   |   |   |   |   |   |   |   |   |   |   |   |   |   |   |   |   |   gam <= 0.327035
|   |   |   |   |   |   |   |   |   |   |   |   |   |   |   |   |   |   |   |   |   |   |   |   |   wa <= 0
|   |   |   |   |   |   |   |   |   |   |   |   |   |   |   |   |   |   |   |   |   |   |   |   |   |   produc <= 0: Like (36.0/15.0)
|   |   |   |   |   |   |   |   |   |   |   |   |   |   |   |   |   |   |   |   |   |   |   |   |   |   produc > 0: NotLike (2.0)
|   |   |   |   |   |   |   |   |   |   |   |   |   |   |   |   |   |   |   |   |   |   |   |   |   wa > 0: NotLike (19.0/5.0)
|   |   |   |   |   |   |   |   |   |   |   |   |   |   |   |   |   |   |   |   |   |   |   |   gam > 0.327035: Like (7.0/1.0)
|   |   |   |   |   |   |   |   |   |   |   |   |   |   |   |   |   |   |   |   |   |   |   sam > 0
|   |   |   |   |   |   |   |   |   |   |   |   |   |   |   |   |   |   |   |   |   |   |   |   great <= 0.920801: NotLike (7.0/1.0)
|   |   |   |   |   |   |   |   |   |   |   |   |   |   |   |   |   |   |   |   |   |   |   |   great > 0.920801: Like (5.0/2.0)
|   |   |   |   |   |   |   |   |   |   |   |   |   |   |   |   |   |   |   |   |   |   problem > 0: NotLike (9.0/2.0)
|   |   |   |   |   |   |   |   |   |   |   |   |   |   |   |   |   |   |   |   |   noth > 0: NotLike (8.0/2.0)
|   |   |   |   |   |   |   |   |   |   |   |   |   |   |   |   |   |   |   |   amaz > 0: Like (7.0/1.0)
|   |   |   |   |   |   |   |   |   |   |   |   |   |   |   |   |   |   |   bor > 1.796697: NotLike (13.0/3.0)
|   |   |   |   |   |   |   |   |   |   |   |   |   |   |   |   |   |   work > 0: Like (10.0/2.0)
|   |   |   |   |   |   |   |   |   |   |   |   |   |   |   |   anno > 0
|   |   |   |   |   |   |   |   |   |   |   |   |   |   |   |   |   rpg <= 0
|   |   |   |   |   |   |   |   |   |   |   |   |   |   |   |   |   |   great <= 0.920801: NotLike (58.0/15.0)
|   |   |   |   |   |   |   |   |   |   |   |   |   |   |   |   |   |   great > 0.920801
|   |   |   |   |   |   |   |   |   |   |   |   |   |   |   |   |   |   |   didnt <= 1.693271: Like (16.0/5.0)
|   |   |   |   |   |   |   |   |   |   |   |   |   |   |   |   |   |   |   didnt > 1.693271: NotLike (2.0)
|   |   |   |   |   |   |   |   |   |   |   |   |   |   |   |   |   rpg > 0: Like (7.0/1.0)
|   |   |   |   |   |   |   |   |   |   |   |   |   |   |   rent > 0
|   |   |   |   |   |   |   |   |   |   |   |   |   |   |   |   problem <= 0
|   |   |   |   |   |   |   |   |   |   |   |   |   |   |   |   |   mone <= 0
|   |   |   |   |   |   |   |   |   |   |   |   |   |   |   |   |   |   frustr <= 0
|   |   |   |   |   |   |   |   |   |   |   |   |   |   |   |   |   |   |   produc <= 0
|   |   |   |   |   |   |   |   |   |   |   |   |   |   |   |   |   |   |   |   didnt <= 0
|   |   |   |   |   |   |   |   |   |   |   |   |   |   |   |   |   |   |   |   |   wa <= 1.503867
|   |   |   |   |   |   |   |   |   |   |   |   |   |   |   |   |   |   |   |   |   |   wa <= 1.29536
|   |   |   |   |   |   |   |   |   |   |   |   |   |   |   |   |   |   |   |   |   |   |   wa <= 0.64768
|   |   |   |   |   |   |   |   |   |   |   |   |   |   |   |   |   |   |   |   |   |   |   |   gam <= 0.116492: NotLike (8.0/1.0)
|   |   |   |   |   |   |   |   |   |   |   |   |   |   |   |   |   |   |   |   |   |   |   |   gam > 0.116492: Like (38.0/14.0)
|   |   |   |   |   |   |   |   |   |   |   |   |   |   |   |   |   |   |   |   |   |   |   wa > 0.64768: NotLike (6.0/2.0)
|   |   |   |   |   |   |   |   |   |   |   |   |   |   |   |   |   |   |   |   |   |   wa > 1.29536: Like (4.0)
|   |   |   |   |   |   |   |   |   |   |   |   |   |   |   |   |   |   |   |   |   wa > 1.503867: NotLike (3.0)
|   |   |   |   |   |   |   |   |   |   |   |   |   |   |   |   |   |   |   |   didnt > 0
|   |   |   |   |   |   |   |   |   |   |   |   |   |   |   |   |   |   |   |   |   great <= 0.920801: NotLike (5.0/1.0)
|   |   |   |   |   |   |   |   |   |   |   |   |   |   |   |   |   |   |   |   |   great > 0.920801: Like (3.0/1.0)
|   |   |   |   |   |   |   |   |   |   |   |   |   |   |   |   |   |   |   produc > 0: NotLike (3.0)
|   |   |   |   |   |   |   |   |   |   |   |   |   |   |   |   |   |   frustr > 0: NotLike (11.0/2.0)
|   |   |   |   |   |   |   |   |   |   |   |   |   |   |   |   |   mone > 0: NotLike (7.0/1.0)
|   |   |   |   |   |   |   |   |   |   |   |   |   |   |   |   problem > 0: NotLike (18.0/2.0)
|   |   |   |   |   |   |   |   |   |   |   |   |   |   wors > 0: NotLike (42.0/13.0)
|   |   |   |   |   |   |   |   |   |   |   |   support > 0
|   |   |   |   |   |   |   |   |   |   |   |   |   perfect <= 0: NotLike (263.0/61.0)
|   |   |   |   |   |   |   |   |   |   |   |   |   perfect > 0
|   |   |   |   |   |   |   |   |   |   |   |   |   |   anno <= 0
|   |   |   |   |   |   |   |   |   |   |   |   |   |   |   noth <= 0: Like (11.0/2.0)
|   |   |   |   |   |   |   |   |   |   |   |   |   |   |   noth > 0: NotLike (4.0/1.0)
|   |   |   |   |   |   |   |   |   |   |   |   |   |   anno > 0: NotLike (3.0)
|   |   |   |   |   |   |   |   |   |   |   unfortun > 0
|   |   |   |   |   |   |   |   |   |   |   |   rpg <= 0
|   |   |   |   |   |   |   |   |   |   |   |   |   gam <= 0.369272: NotLike (195.0/29.0)
|   |   |   |   |   |   |   |   |   |   |   |   |   gam > 0.369272
|   |   |   |   |   |   |   |   |   |   |   |   |   |   disappointm <= 0
|   |   |   |   |   |   |   |   |   |   |   |   |   |   |   problem <= 1.597955
|   |   |   |   |   |   |   |   |   |   |   |   |   |   |   |   frustr <= 0
|   |   |   |   |   |   |   |   |   |   |   |   |   |   |   |   |   mone <= 0: Like (22.0/7.0)
|   |   |   |   |   |   |   |   |   |   |   |   |   |   |   |   |   mone > 0: NotLike (2.0)
|   |   |   |   |   |   |   |   |   |   |   |   |   |   |   |   frustr > 0: NotLike (10.0/2.0)
|   |   |   |   |   |   |   |   |   |   |   |   |   |   |   problem > 1.597955: NotLike (4.0)
|   |   |   |   |   |   |   |   |   |   |   |   |   |   disappointm > 0: NotLike (2.0)
|   |   |   |   |   |   |   |   |   |   |   |   rpg > 0
|   |   |   |   |   |   |   |   |   |   |   |   |   bor <= 0
|   |   |   |   |   |   |   |   |   |   |   |   |   |   rpg <= 1.96241
|   |   |   |   |   |   |   |   |   |   |   |   |   |   |   wa <= 0
|   |   |   |   |   |   |   |   |   |   |   |   |   |   |   |   didnt <= 0: Like (4.0)
|   |   |   |   |   |   |   |   |   |   |   |   |   |   |   |   didnt > 0: NotLike (2.0)
|   |   |   |   |   |   |   |   |   |   |   |   |   |   |   wa > 0: NotLike (2.0)
|   |   |   |   |   |   |   |   |   |   |   |   |   |   rpg > 1.96241: Like (3.0)
|   |   |   |   |   |   |   |   |   |   |   |   |   bor > 0: NotLike (2.0)
|   |   |   |   |   |   |   |   |   |   lov > 0
|   |   |   |   |   |   |   |   |   |   |   frustr <= 0
|   |   |   |   |   |   |   |   |   |   |   |   anno <= 0
|   |   |   |   |   |   |   |   |   |   |   |   |   noth <= 0
|   |   |   |   |   |   |   |   |   |   |   |   |   |   support <= 0
|   |   |   |   |   |   |   |   |   |   |   |   |   |   |   amaz <= 0
|   |   |   |   |   |   |   |   |   |   |   |   |   |   |   |   bor <= 0
|   |   |   |   |   |   |   |   |   |   |   |   |   |   |   |   |   dog <= 4.203151
|   |   |   |   |   |   |   |   |   |   |   |   |   |   |   |   |   |   didnt <= 0
|   |   |   |   |   |   |   |   |   |   |   |   |   |   |   |   |   |   |   tr <= 0
|   |   |   |   |   |   |   |   |   |   |   |   |   |   |   |   |   |   |   |   sam <= 0: Like (1447.0/264.0)
|   |   |   |   |   |   |   |   |   |   |   |   |   |   |   |   |   |   |   |   sam > 0
|   |   |   |   |   |   |   |   |   |   |   |   |   |   |   |   |   |   |   |   |   sam <= 2.31983
|   |   |   |   |   |   |   |   |   |   |   |   |   |   |   |   |   |   |   |   |   |   wa <= 0
|   |   |   |   |   |   |   |   |   |   |   |   |   |   |   |   |   |   |   |   |   |   |   dog <= 0: Like (64.0/16.0)
|   |   |   |   |   |   |   |   |   |   |   |   |   |   |   |   |   |   |   |   |   |   |   dog > 0
|   |   |   |   |   |   |   |   |   |   |   |   |   |   |   |   |   |   |   |   |   |   |   |   gam <= 0.232985: NotLike (2.0)
|   |   |   |   |   |   |   |   |   |   |   |   |   |   |   |   |   |   |   |   |   |   |   |   gam > 0.232985: Like (2.0)
|   |   |   |   |   |   |   |   |   |   |   |   |   |   |   |   |   |   |   |   |   |   wa > 0
|   |   |   |   |   |   |   |   |   |   |   |   |   |   |   |   |   |   |   |   |   |   |   gam <= 0: NotLike (4.0)
|   |   |   |   |   |   |   |   |   |   |   |   |   |   |   |   |   |   |   |   |   |   |   gam > 0
|   |   |   |   |   |   |   |   |   |   |   |   |   |   |   |   |   |   |   |   |   |   |   |   wa <= 0.64768
|   |   |   |   |   |   |   |   |   |   |   |   |   |   |   |   |   |   |   |   |   |   |   |   |   great <= 0: NotLike (17.0/4.0)
|   |   |   |   |   |   |   |   |   |   |   |   |   |   |   |   |   |   |   |   |   |   |   |   |   great > 0: Like (8.0/1.0)
|   |   |   |   |   |   |   |   |   |   |   |   |   |   |   |   |   |   |   |   |   |   |   |   wa > 0.64768: Like (27.0/7.0)
|   |   |   |   |   |   |   |   |   |   |   |   |   |   |   |   |   |   |   |   |   sam > 2.31983: Like (9.0)
|   |   |   |   |   |   |   |   |   |   |   |   |   |   |   |   |   |   |   tr > 0
|   |   |   |   |   |   |   |   |   |   |   |   |   |   |   |   |   |   |   |   great <= 0
|   |   |   |   |   |   |   |   |   |   |   |   |   |   |   |   |   |   |   |   |   wa <= 0.64768: Like (24.0/9.0)
|   |   |   |   |   |   |   |   |   |   |   |   |   |   |   |   |   |   |   |   |   wa > 0.64768: NotLike (9.0)
|   |   |   |   |   |   |   |   |   |   |   |   |   |   |   |   |   |   |   |   great > 0: Like (16.0/3.0)
|   |   |   |   |   |   |   |   |   |   |   |   |   |   |   |   |   |   didnt > 0
|   |   |   |   |   |   |   |   |   |   |   |   |   |   |   |   |   |   |   bad <= 0
|   |   |   |   |   |   |   |   |   |   |   |   |   |   |   |   |   |   |   |   perfect <= 0
|   |   |   |   |   |   |   |   |   |   |   |   |   |   |   |   |   |   |   |   |   lov <= 1.26981
|   |   |   |   |   |   |   |   |   |   |   |   |   |   |   |   |   |   |   |   |   |   didnt <= 1.693271
|   |   |   |   |   |   |   |   |   |   |   |   |   |   |   |   |   |   |   |   |   |   |   problem <= 0
|   |   |   |   |   |   |   |   |   |   |   |   |   |   |   |   |   |   |   |   |   |   |   |   wa <= 1.818268
|   |   |   |   |   |   |   |   |   |   |   |   |   |   |   |   |   |   |   |   |   |   |   |   |   sam <= 0
|   |   |   |   |   |   |   |   |   |   |   |   |   |   |   |   |   |   |   |   |   |   |   |   |   |   work <= 0
|   |   |   |   |   |   |   |   |   |   |   |   |   |   |   |   |   |   |   |   |   |   |   |   |   |   |   gam <= 0.232985: NotLike (19.0/8.0)
|   |   |   |   |   |   |   |   |   |   |   |   |   |   |   |   |   |   |   |   |   |   |   |   |   |   |   gam > 0.232985: Like (15.0/4.0)
|   |   |   |   |   |   |   |   |   |   |   |   |   |   |   |   |   |   |   |   |   |   |   |   |   |   work > 0
|   |   |   |   |   |   |   |   |   |   |   |   |   |   |   |   |   |   |   |   |   |   |   |   |   |   |   gam <= 0: Like (3.0)
|   |   |   |   |   |   |   |   |   |   |   |   |   |   |   |   |   |   |   |   |   |   |   |   |   |   |   gam > 0: NotLike (9.0/2.0)
|   |   |   |   |   |   |   |   |   |   |   |   |   |   |   |   |   |   |   |   |   |   |   |   |   sam > 0: Like (4.0)
|   |   |   |   |   |   |   |   |   |   |   |   |   |   |   |   |   |   |   |   |   |   |   |   wa > 1.818268: NotLike (3.0)
|   |   |   |   |   |   |   |   |   |   |   |   |   |   |   |   |   |   |   |   |   |   |   problem > 0: NotLike (8.0/2.0)
|   |   |   |   |   |   |   |   |   |   |   |   |   |   |   |   |   |   |   |   |   |   didnt > 1.693271: Like (7.0/1.0)
|   |   |   |   |   |   |   |   |   |   |   |   |   |   |   |   |   |   |   |   |   lov > 1.26981
|   |   |   |   |   |   |   |   |   |   |   |   |   |   |   |   |   |   |   |   |   |   didnt <= 1.693271: Like (21.0/3.0)
|   |   |   |   |   |   |   |   |   |   |   |   |   |   |   |   |   |   |   |   |   |   didnt > 1.693271
|   |   |   |   |   |   |   |   |   |   |   |   |   |   |   |   |   |   |   |   |   |   |   great <= 0: Like (3.0)
|   |   |   |   |   |   |   |   |   |   |   |   |   |   |   |   |   |   |   |   |   |   |   great > 0: NotLike (3.0)
|   |   |   |   |   |   |   |   |   |   |   |   |   |   |   |   |   |   |   |   perfect > 0: Like (7.0/1.0)
|   |   |   |   |   |   |   |   |   |   |   |   |   |   |   |   |   |   |   bad > 0
|   |   |   |   |   |   |   |   |   |   |   |   |   |   |   |   |   |   |   |   sam <= 0: NotLike (13.0/3.0)
|   |   |   |   |   |   |   |   |   |   |   |   |   |   |   |   |   |   |   |   sam > 0: Like (2.0)
|   |   |   |   |   |   |   |   |   |   |   |   |   |   |   |   |   dog > 4.203151: Like (37.0)
|   |   |   |   |   |   |   |   |   |   |   |   |   |   |   |   bor > 0
|   |   |   |   |   |   |   |   |   |   |   |   |   |   |   |   |   wa <= 1.503867
|   |   |   |   |   |   |   |   |   |   |   |   |   |   |   |   |   |   wa <= 0: Like (46.0/13.0)
|   |   |   |   |   |   |   |   |   |   |   |   |   |   |   |   |   |   wa > 0
|   |   |   |   |   |   |   |   |   |   |   |   |   |   |   |   |   |   |   lov <= 1.26981
|   |   |   |   |   |   |   |   |   |   |   |   |   |   |   |   |   |   |   |   wa <= 1.026549
|   |   |   |   |   |   |   |   |   |   |   |   |   |   |   |   |   |   |   |   |   rpg <= 0
|   |   |   |   |   |   |   |   |   |   |   |   |   |   |   |   |   |   |   |   |   |   bor <= 1.796697
|   |   |   |   |   |   |   |   |   |   |   |   |   |   |   |   |   |   |   |   |   |   |   mone <= 0
|   |   |   |   |   |   |   |   |   |   |   |   |   |   |   |   |   |   |   |   |   |   |   |   sam <= 0: NotLike (24.0/5.0)
|   |   |   |   |   |   |   |   |   |   |   |   |   |   |   |   |   |   |   |   |   |   |   |   sam > 0: Like (4.0/1.0)
|   |   |   |   |   |   |   |   |   |   |   |   |   |   |   |   |   |   |   |   |   |   |   mone > 0: Like (2.0)
|   |   |   |   |   |   |   |   |   |   |   |   |   |   |   |   |   |   |   |   |   |   bor > 1.796697: NotLike (7.0/1.0)
|   |   |   |   |   |   |   |   |   |   |   |   |   |   |   |   |   |   |   |   |   rpg > 0: Like (2.0)
|   |   |   |   |   |   |   |   |   |   |   |   |   |   |   |   |   |   |   |   wa > 1.026549: NotLike (10.0)
|   |   |   |   |   |   |   |   |   |   |   |   |   |   |   |   |   |   |   lov > 1.26981: Like (6.0/1.0)
|   |   |   |   |   |   |   |   |   |   |   |   |   |   |   |   |   wa > 1.503867: Like (8.0/2.0)
|   |   |   |   |   |   |   |   |   |   |   |   |   |   |   amaz > 0
|   |   |   |   |   |   |   |   |   |   |   |   |   |   |   |   mone <= 0: Like (76.0/1.0)
|   |   |   |   |   |   |   |   |   |   |   |   |   |   |   |   mone > 0
|   |   |   |   |   |   |   |   |   |   |   |   |   |   |   |   |   gam <= 0.184636: NotLike (2.0)
|   |   |   |   |   |   |   |   |   |   |   |   |   |   |   |   |   gam > 0.184636: Like (8.0)
|   |   |   |   |   |   |   |   |   |   |   |   |   |   support > 0
|   |   |   |   |   |   |   |   |   |   |   |   |   |   |   bad <= 1.435223
|   |   |   |   |   |   |   |   |   |   |   |   |   |   |   |   bad <= 0
|   |   |   |   |   |   |   |   |   |   |   |   |   |   |   |   |   tr <= 0
|   |   |   |   |   |   |   |   |   |   |   |   |   |   |   |   |   |   problem <= 0
|   |   |   |   |   |   |   |   |   |   |   |   |   |   |   |   |   |   |   lov <= 1.26981
|   |   |   |   |   |   |   |   |   |   |   |   |   |   |   |   |   |   |   |   didnt <= 0
|   |   |   |   |   |   |   |   |   |   |   |   |   |   |   |   |   |   |   |   |   sam <= 0
|   |   |   |   |   |   |   |   |   |   |   |   |   |   |   |   |   |   |   |   |   |   work <= 0: Like (8.0)
|   |   |   |   |   |   |   |   |   |   |   |   |   |   |   |   |   |   |   |   |   |   work > 0: NotLike (2.0)
|   |   |   |   |   |   |   |   |   |   |   |   |   |   |   |   |   |   |   |   |   sam > 0: NotLike (4.0/1.0)
|   |   |   |   |   |   |   |   |   |   |   |   |   |   |   |   |   |   |   |   didnt > 0: Like (2.0)
|   |   |   |   |   |   |   |   |   |   |   |   |   |   |   |   |   |   |   lov > 1.26981: NotLike (3.0/1.0)
|   |   |   |   |   |   |   |   |   |   |   |   |   |   |   |   |   |   problem > 0: NotLike (4.0/1.0)
|   |   |   |   |   |   |   |   |   |   |   |   |   |   |   |   |   tr > 0: NotLike (2.0)
|   |   |   |   |   |   |   |   |   |   |   |   |   |   |   |   bad > 0: Like (2.0)
|   |   |   |   |   |   |   |   |   |   |   |   |   |   |   bad > 1.435223: NotLike (2.0)
|   |   |   |   |   |   |   |   |   |   |   |   |   noth > 0
|   |   |   |   |   |   |   |   |   |   |   |   |   |   unfortun <= 0
|   |   |   |   |   |   |   |   |   |   |   |   |   |   |   dog <= 0
|   |   |   |   |   |   |   |   |   |   |   |   |   |   |   |   stupid <= 0
|   |   |   |   |   |   |   |   |   |   |   |   |   |   |   |   |   problem <= 1.597955
|   |   |   |   |   |   |   |   |   |   |   |   |   |   |   |   |   |   mone <= 0
|   |   |   |   |   |   |   |   |   |   |   |   |   |   |   |   |   |   |   work <= 1.30876
|   |   |   |   |   |   |   |   |   |   |   |   |   |   |   |   |   |   |   |   bor <= 0: Like (52.0/17.0)
|   |   |   |   |   |   |   |   |   |   |   |   |   |   |   |   |   |   |   |   bor > 0: NotLike (5.0/1.0)
|   |   |   |   |   |   |   |   |   |   |   |   |   |   |   |   |   |   |   work > 1.30876: NotLike (3.0)
|   |   |   |   |   |   |   |   |   |   |   |   |   |   |   |   |   |   mone > 0
|   |   |   |   |   |   |   |   |   |   |   |   |   |   |   |   |   |   |   gam <= 0.431073: NotLike (7.0)
|   |   |   |   |   |   |   |   |   |   |   |   |   |   |   |   |   |   |   gam > 0.431073: Like (2.0)
|   |   |   |   |   |   |   |   |   |   |   |   |   |   |   |   |   problem > 1.597955: Like (4.0)
|   |   |   |   |   |   |   |   |   |   |   |   |   |   |   |   stupid > 0: NotLike (6.0)
|   |   |   |   |   |   |   |   |   |   |   |   |   |   |   dog > 0: Like (4.0)
|   |   |   |   |   |   |   |   |   |   |   |   |   |   unfortun > 0: NotLike (6.0)
|   |   |   |   |   |   |   |   |   |   |   |   anno > 0
|   |   |   |   |   |   |   |   |   |   |   |   |   rent <= 0
|   |   |   |   |   |   |   |   |   |   |   |   |   |   amaz <= 0
|   |   |   |   |   |   |   |   |   |   |   |   |   |   |   problem <= 1.597955
|   |   |   |   |   |   |   |   |   |   |   |   |   |   |   |   perfect <= 0
|   |   |   |   |   |   |   |   |   |   |   |   |   |   |   |   |   tr <= 0
|   |   |   |   |   |   |   |   |   |   |   |   |   |   |   |   |   |   dog <= 0
|   |   |   |   |   |   |   |   |   |   |   |   |   |   |   |   |   |   |   wa <= 1.818268
|   |   |   |   |   |   |   |   |   |   |   |   |   |   |   |   |   |   |   |   wa <= 0.64768
|   |   |   |   |   |   |   |   |   |   |   |   |   |   |   |   |   |   |   |   |   bor <= 0
|   |   |   |   |   |   |   |   |   |   |   |   |   |   |   |   |   |   |   |   |   |   anno <= 2.166894
|   |   |   |   |   |   |   |   |   |   |   |   |   |   |   |   |   |   |   |   |   |   |   noth <= 0
|   |   |   |   |   |   |   |   |   |   |   |   |   |   |   |   |   |   |   |   |   |   |   |   bad <= 0
|   |   |   |   |   |   |   |   |   |   |   |   |   |   |   |   |   |   |   |   |   |   |   |   |   great <= 0: Like (6.0/1.0)
|   |   |   |   |   |   |   |   |   |   |   |   |   |   |   |   |   |   |   |   |   |   |   |   |   great > 0: NotLike (6.0/2.0)
|   |   |   |   |   |   |   |   |   |   |   |   |   |   |   |   |   |   |   |   |   |   |   |   bad > 0: NotLike (3.0)
|   |   |   |   |   |   |   |   |   |   |   |   |   |   |   |   |   |   |   |   |   |   |   noth > 0: Like (2.0)
|   |   |   |   |   |   |   |   |   |   |   |   |   |   |   |   |   |   |   |   |   |   anno > 2.166894: NotLike (2.0)
|   |   |   |   |   |   |   |   |   |   |   |   |   |   |   |   |   |   |   |   |   bor > 0: NotLike (2.0)
|   |   |   |   |   |   |   |   |   |   |   |   |   |   |   |   |   |   |   |   wa > 0.64768: NotLike (10.0)
|   |   |   |   |   |   |   |   |   |   |   |   |   |   |   |   |   |   |   wa > 1.818268: Like (2.0)
|   |   |   |   |   |   |   |   |   |   |   |   |   |   |   |   |   |   dog > 0: Like (2.0)
|   |   |   |   |   |   |   |   |   |   |   |   |   |   |   |   |   tr > 0: NotLike (4.0)
|   |   |   |   |   |   |   |   |   |   |   |   |   |   |   |   perfect > 0: Like (3.0)
|   |   |   |   |   |   |   |   |   |   |   |   |   |   |   problem > 1.597955: NotLike (4.0)
|   |   |   |   |   |   |   |   |   |   |   |   |   |   amaz > 0: Like (6.0/1.0)
|   |   |   |   |   |   |   |   |   |   |   |   |   rent > 0: Like (3.0)
|   |   |   |   |   |   |   |   |   |   |   frustr > 0
|   |   |   |   |   |   |   |   |   |   |   |   mone <= 0
|   |   |   |   |   |   |   |   |   |   |   |   |   amaz <= 0
|   |   |   |   |   |   |   |   |   |   |   |   |   |   didnt <= 0
|   |   |   |   |   |   |   |   |   |   |   |   |   |   |   lov <= 2.012601
|   |   |   |   |   |   |   |   |   |   |   |   |   |   |   |   lov <= 1.26981
|   |   |   |   |   |   |   |   |   |   |   |   |   |   |   |   |   wa <= 0.64768
|   |   |   |   |   |   |   |   |   |   |   |   |   |   |   |   |   |   work <= 0
|   |   |   |   |   |   |   |   |   |   |   |   |   |   |   |   |   |   |   gam <= 0: NotLike (4.0)
|   |   |   |   |   |   |   |   |   |   |   |   |   |   |   |   |   |   |   gam > 0
|   |   |   |   |   |   |   |   |   |   |   |   |   |   |   |   |   |   |   |   bad <= 0: Like (31.0/11.0)
|   |   |   |   |   |   |   |   |   |   |   |   |   |   |   |   |   |   |   |   bad > 0: NotLike (6.0/1.0)
|   |   |   |   |   |   |   |   |   |   |   |   |   |   |   |   |   |   work > 0: NotLike (7.0/1.0)
|   |   |   |   |   |   |   |   |   |   |   |   |   |   |   |   |   wa > 0.64768: NotLike (16.0/3.0)
|   |   |   |   |   |   |   |   |   |   |   |   |   |   |   |   lov > 1.26981: NotLike (12.0/1.0)
|   |   |   |   |   |   |   |   |   |   |   |   |   |   |   lov > 2.012601: Like (5.0/1.0)
|   |   |   |   |   |   |   |   |   |   |   |   |   |   didnt > 0
|   |   |   |   |   |   |   |   |   |   |   |   |   |   |   lov <= 1.26981: NotLike (11.0)
|   |   |   |   |   |   |   |   |   |   |   |   |   |   |   lov > 1.26981: Like (3.0/1.0)
|   |   |   |   |   |   |   |   |   |   |   |   |   amaz > 0: Like (7.0/1.0)
|   |   |   |   |   |   |   |   |   |   |   |   mone > 0: Like (7.0/1.0)
|   |   |   |   |   |   |   |   |   fantas > 0
|   |   |   |   |   |   |   |   |   |   bor <= 0
|   |   |   |   |   |   |   |   |   |   |   problem <= 0: Like (512.0/75.0)
|   |   |   |   |   |   |   |   |   |   |   problem > 0
|   |   |   |   |   |   |   |   |   |   |   |   support <= 0
|   |   |   |   |   |   |   |   |   |   |   |   |   amaz <= 0
|   |   |   |   |   |   |   |   |   |   |   |   |   |   produc <= 0
|   |   |   |   |   |   |   |   |   |   |   |   |   |   |   wa <= 0: Like (16.0/2.0)
|   |   |   |   |   |   |   |   |   |   |   |   |   |   |   wa > 0
|   |   |   |   |   |   |   |   |   |   |   |   |   |   |   |   great <= 0
|   |   |   |   |   |   |   |   |   |   |   |   |   |   |   |   |   fantas <= 2.185257: Like (3.0/1.0)
|   |   |   |   |   |   |   |   |   |   |   |   |   |   |   |   |   fantas > 2.185257: NotLike (5.0)
|   |   |   |   |   |   |   |   |   |   |   |   |   |   |   |   great > 0: Like (4.0/1.0)
|   |   |   |   |   |   |   |   |   |   |   |   |   |   produc > 0: NotLike (2.0)
|   |   |   |   |   |   |   |   |   |   |   |   |   amaz > 0: Like (6.0/1.0)
|   |   |   |   |   |   |   |   |   |   |   |   support > 0: NotLike (2.0)
|   |   |   |   |   |   |   |   |   |   bor > 0
|   |   |   |   |   |   |   |   |   |   |   amaz <= 0
|   |   |   |   |   |   |   |   |   |   |   |   stupid <= 0
|   |   |   |   |   |   |   |   |   |   |   |   |   rpg <= 0
|   |   |   |   |   |   |   |   |   |   |   |   |   |   produc <= 0
|   |   |   |   |   |   |   |   |   |   |   |   |   |   |   gam <= 0.327035: NotLike (17.0/2.0)
|   |   |   |   |   |   |   |   |   |   |   |   |   |   |   gam > 0.327035: Like (2.0)
|   |   |   |   |   |   |   |   |   |   |   |   |   |   produc > 0: Like (2.0)
|   |   |   |   |   |   |   |   |   |   |   |   |   rpg > 0
|   |   |   |   |   |   |   |   |   |   |   |   |   |   wa <= 0: Like (13.0)
|   |   |   |   |   |   |   |   |   |   |   |   |   |   wa > 0
|   |   |   |   |   |   |   |   |   |   |   |   |   |   |   wa <= 1.026549
|   |   |   |   |   |   |   |   |   |   |   |   |   |   |   |   gam <= 0.301128: Like (2.0)
|   |   |   |   |   |   |   |   |   |   |   |   |   |   |   |   gam > 0.301128: NotLike (3.0)
|   |   |   |   |   |   |   |   |   |   |   |   |   |   |   wa > 1.026549: Like (2.0)
|   |   |   |   |   |   |   |   |   |   |   |   stupid > 0: NotLike (6.0)
|   |   |   |   |   |   |   |   |   |   |   amaz > 0: Like (8.0)
|   |   |   |   |   |   |   |   addict > 0
|   |   |   |   |   |   |   |   |   frustr <= 0
|   |   |   |   |   |   |   |   |   |   anno <= 0: Like (483.0/66.0)
|   |   |   |   |   |   |   |   |   |   anno > 0
|   |   |   |   |   |   |   |   |   |   |   bor <= 1.796697
|   |   |   |   |   |   |   |   |   |   |   |   problem <= 0: Like (19.0/4.0)
|   |   |   |   |   |   |   |   |   |   |   |   problem > 0: NotLike (3.0/1.0)
|   |   |   |   |   |   |   |   |   |   |   bor > 1.796697: NotLike (3.0)
|   |   |   |   |   |   |   |   |   frustr > 0
|   |   |   |   |   |   |   |   |   |   noth <= 0
|   |   |   |   |   |   |   |   |   |   |   frustr <= 2.010715
|   |   |   |   |   |   |   |   |   |   |   |   bad <= 0
|   |   |   |   |   |   |   |   |   |   |   |   |   addict <= 2.360785
|   |   |   |   |   |   |   |   |   |   |   |   |   |   rpg <= 0
|   |   |   |   |   |   |   |   |   |   |   |   |   |   |   mone <= 0: Like (10.0/2.0)
|   |   |   |   |   |   |   |   |   |   |   |   |   |   |   mone > 0: NotLike (3.0/1.0)
|   |   |   |   |   |   |   |   |   |   |   |   |   |   rpg > 0: NotLike (2.0)
|   |   |   |   |   |   |   |   |   |   |   |   |   addict > 2.360785: NotLike (2.0)
|   |   |   |   |   |   |   |   |   |   |   |   bad > 0: Like (7.0)
|   |   |   |   |   |   |   |   |   |   |   frustr > 2.010715: NotLike (2.0)
|   |   |   |   |   |   |   |   |   |   noth > 0: NotLike (3.0)
|   |   |   |   |   |   |   awesom > 0
|   |   |   |   |   |   |   |   frustr <= 0
|   |   |   |   |   |   |   |   |   stupid <= 0
|   |   |   |   |   |   |   |   |   |   rent <= 0
|   |   |   |   |   |   |   |   |   |   |   wa <= 0.64768: Like (699.0/75.0)
|   |   |   |   |   |   |   |   |   |   |   wa > 0.64768
|   |   |   |   |   |   |   |   |   |   |   |   fantas <= 0
|   |   |   |   |   |   |   |   |   |   |   |   |   anno <= 0
|   |   |   |   |   |   |   |   |   |   |   |   |   |   amaz <= 0
|   |   |   |   |   |   |   |   |   |   |   |   |   |   |   wa <= 1.29536
|   |   |   |   |   |   |   |   |   |   |   |   |   |   |   |   work <= 0
|   |   |   |   |   |   |   |   |   |   |   |   |   |   |   |   |   lov <= 1.26981
|   |   |   |   |   |   |   |   |   |   |   |   |   |   |   |   |   |   wa <= 1.026549
|   |   |   |   |   |   |   |   |   |   |   |   |   |   |   |   |   |   |   sam <= 0
|   |   |   |   |   |   |   |   |   |   |   |   |   |   |   |   |   |   |   |   disappointm <= 0: Like (40.0/5.0)
|   |   |   |   |   |   |   |   |   |   |   |   |   |   |   |   |   |   |   |   disappointm > 0: NotLike (2.0)
|   |   |   |   |   |   |   |   |   |   |   |   |   |   |   |   |   |   |   sam > 0: NotLike (2.0)
|   |   |   |   |   |   |   |   |   |   |   |   |   |   |   |   |   |   wa > 1.026549: Like (14.0/1.0)
|   |   |   |   |   |   |   |   |   |   |   |   |   |   |   |   |   lov > 1.26981
|   |   |   |   |   |   |   |   |   |   |   |   |   |   |   |   |   |   wa <= 1.026549: Like (3.0/1.0)
|   |   |   |   |   |   |   |   |   |   |   |   |   |   |   |   |   |   wa > 1.026549: NotLike (2.0)
|   |   |   |   |   |   |   |   |   |   |   |   |   |   |   |   work > 0
|   |   |   |   |   |   |   |   |   |   |   |   |   |   |   |   |   mone <= 0
|   |   |   |   |   |   |   |   |   |   |   |   |   |   |   |   |   |   produc <= 0: Like (11.0/2.0)
|   |   |   |   |   |   |   |   |   |   |   |   |   |   |   |   |   |   produc > 0: NotLike (3.0/1.0)
|   |   |   |   |   |   |   |   |   |   |   |   |   |   |   |   |   mone > 0: NotLike (2.0)
|   |   |   |   |   |   |   |   |   |   |   |   |   |   |   wa > 1.29536
|   |   |   |   |   |   |   |   |   |   |   |   |   |   |   |   noth <= 0
|   |   |   |   |   |   |   |   |   |   |   |   |   |   |   |   |   tr <= 0
|   |   |   |   |   |   |   |   |   |   |   |   |   |   |   |   |   |   work <= 0
|   |   |   |   |   |   |   |   |   |   |   |   |   |   |   |   |   |   |   bad <= 0: NotLike (11.0/3.0)
|   |   |   |   |   |   |   |   |   |   |   |   |   |   |   |   |   |   |   bad > 0
|   |   |   |   |   |   |   |   |   |   |   |   |   |   |   |   |   |   |   |   wa <= 1.674229: Like (2.0)
|   |   |   |   |   |   |   |   |   |   |   |   |   |   |   |   |   |   |   |   wa > 1.674229: NotLike (2.0)
|   |   |   |   |   |   |   |   |   |   |   |   |   |   |   |   |   |   work > 0: Like (3.0)
|   |   |   |   |   |   |   |   |   |   |   |   |   |   |   |   |   tr > 0: NotLike (3.0)
|   |   |   |   |   |   |   |   |   |   |   |   |   |   |   |   noth > 0: Like (2.0)
|   |   |   |   |   |   |   |   |   |   |   |   |   |   amaz > 0: Like (25.0/2.0)
|   |   |   |   |   |   |   |   |   |   |   |   |   anno > 0: NotLike (9.0/1.0)
|   |   |   |   |   |   |   |   |   |   |   |   fantas > 0: Like (13.0)
|   |   |   |   |   |   |   |   |   |   rent > 0
|   |   |   |   |   |   |   |   |   |   |   awesom <= 3.203269
|   |   |   |   |   |   |   |   |   |   |   |   wors <= 0
|   |   |   |   |   |   |   |   |   |   |   |   |   didnt <= 0
|   |   |   |   |   |   |   |   |   |   |   |   |   |   bor <= 0
|   |   |   |   |   |   |   |   |   |   |   |   |   |   |   problem <= 0
|   |   |   |   |   |   |   |   |   |   |   |   |   |   |   |   amaz <= 0
|   |   |   |   |   |   |   |   |   |   |   |   |   |   |   |   |   sam <= 0
|   |   |   |   |   |   |   |   |   |   |   |   |   |   |   |   |   |   lov <= 0
|   |   |   |   |   |   |   |   |   |   |   |   |   |   |   |   |   |   |   wa <= 0.64768: NotLike (12.0/4.0)
|   |   |   |   |   |   |   |   |   |   |   |   |   |   |   |   |   |   |   wa > 0.64768: Like (2.0)
|   |   |   |   |   |   |   |   |   |   |   |   |   |   |   |   |   |   lov > 0: Like (3.0)
|   |   |   |   |   |   |   |   |   |   |   |   |   |   |   |   |   sam > 0: NotLike (2.0)
|   |   |   |   |   |   |   |   |   |   |   |   |   |   |   |   amaz > 0: Like (3.0)
|   |   |   |   |   |   |   |   |   |   |   |   |   |   |   problem > 0: NotLike (3.0)
|   |   |   |   |   |   |   |   |   |   |   |   |   |   bor > 0: NotLike (3.0)
|   |   |   |   |   |   |   |   |   |   |   |   |   didnt > 0: Like (2.0)
|   |   |   |   |   |   |   |   |   |   |   |   wors > 0: NotLike (3.0)
|   |   |   |   |   |   |   |   |   |   |   awesom > 3.203269: Like (5.0)
|   |   |   |   |   |   |   |   |   stupid > 0
|   |   |   |   |   |   |   |   |   |   wors <= 0
|   |   |   |   |   |   |   |   |   |   |   bad <= 1.435223
|   |   |   |   |   |   |   |   |   |   |   |   bad <= 0
|   |   |   |   |   |   |   |   |   |   |   |   |   bor <= 0: Like (11.0/3.0)
|   |   |   |   |   |   |   |   |   |   |   |   |   bor > 0: NotLike (2.0)
|   |   |   |   |   |   |   |   |   |   |   |   bad > 0: NotLike (6.0)
|   |   |   |   |   |   |   |   |   |   |   bad > 1.435223: Like (3.0)
|   |   |   |   |   |   |   |   |   |   wors > 0: NotLike (3.0)
|   |   |   |   |   |   |   |   frustr > 0
|   |   |   |   |   |   |   |   |   addict <= 0
|   |   |   |   |   |   |   |   |   |   tr <= 0: NotLike (26.0/9.0)
|   |   |   |   |   |   |   |   |   |   tr > 0: Like (2.0)
|   |   |   |   |   |   |   |   |   addict > 0: Like (3.0)
|   |   |   |   |   |   return > 0
|   |   |   |   |   |   |   great <= 0.920801
|   |   |   |   |   |   |   |   lov <= 0
|   |   |   |   |   |   |   |   |   perfect <= 0
|   |   |   |   |   |   |   |   |   |   gam <= 0.232985: NotLike (213.0/19.0)
|   |   |   |   |   |   |   |   |   |   gam > 0.232985
|   |   |   |   |   |   |   |   |   |   |   amaz <= 0
|   |   |   |   |   |   |   |   |   |   |   |   awesom <= 0
|   |   |   |   |   |   |   |   |   |   |   |   |   noth <= 0
|   |   |   |   |   |   |   |   |   |   |   |   |   |   bor <= 0
|   |   |   |   |   |   |   |   |   |   |   |   |   |   |   rpg <= 0: NotLike (86.0/23.0)
|   |   |   |   |   |   |   |   |   |   |   |   |   |   |   rpg > 0
|   |   |   |   |   |   |   |   |   |   |   |   |   |   |   |   bad <= 0: Like (5.0/1.0)
|   |   |   |   |   |   |   |   |   |   |   |   |   |   |   |   bad > 0: NotLike (2.0)
|   |   |   |   |   |   |   |   |   |   |   |   |   |   bor > 0: Like (6.0/2.0)
|   |   |   |   |   |   |   |   |   |   |   |   |   noth > 0: NotLike (16.0/1.0)
|   |   |   |   |   |   |   |   |   |   |   |   awesom > 0
|   |   |   |   |   |   |   |   |   |   |   |   |   didnt <= 0: Like (5.0)
|   |   |   |   |   |   |   |   |   |   |   |   |   didnt > 0: NotLike (2.0)
|   |   |   |   |   |   |   |   |   |   |   amaz > 0: Like (7.0/1.0)
|   |   |   |   |   |   |   |   |   perfect > 0
|   |   |   |   |   |   |   |   |   |   wa <= 0: NotLike (8.0/1.0)
|   |   |   |   |   |   |   |   |   |   wa > 0: Like (12.0/3.0)
|   |   |   |   |   |   |   |   lov > 0
|   |   |   |   |   |   |   |   |   unfortun <= 0
|   |   |   |   |   |   |   |   |   |   rent <= 0
|   |   |   |   |   |   |   |   |   |   |   produc <= 0
|   |   |   |   |   |   |   |   |   |   |   |   frustr <= 0
|   |   |   |   |   |   |   |   |   |   |   |   |   disappointm <= 0: Like (36.0/12.0)
|   |   |   |   |   |   |   |   |   |   |   |   |   disappointm > 0: NotLike (2.0)
|   |   |   |   |   |   |   |   |   |   |   |   frustr > 0: NotLike (6.0/1.0)
|   |   |   |   |   |   |   |   |   |   |   produc > 0: Like (4.0)
|   |   |   |   |   |   |   |   |   |   rent > 0: NotLike (3.0)
|   |   |   |   |   |   |   |   |   unfortun > 0: NotLike (4.0)
|   |   |   |   |   |   |   great > 0.920801
|   |   |   |   |   |   |   |   bor <= 0
|   |   |   |   |   |   |   |   |   produc <= 0: Like (28.0/6.0)
|   |   |   |   |   |   |   |   |   produc > 0: NotLike (3.0/1.0)
|   |   |   |   |   |   |   |   bor > 0: NotLike (2.0)
|   |   |   |   |   disappoint > 0
|   |   |   |   |   |   rpg <= 0
|   |   |   |   |   |   |   awesom <= 0
|   |   |   |   |   |   |   |   great <= 0
|   |   |   |   |   |   |   |   |   lov <= 0: NotLike (421.0/58.0)
|   |   |   |   |   |   |   |   |   lov > 0
|   |   |   |   |   |   |   |   |   |   anno <= 0
|   |   |   |   |   |   |   |   |   |   |   bor <= 0
|   |   |   |   |   |   |   |   |   |   |   |   disappoint <= 2.095906
|   |   |   |   |   |   |   |   |   |   |   |   |   perfect <= 0
|   |   |   |   |   |   |   |   |   |   |   |   |   |   amaz <= 0
|   |   |   |   |   |   |   |   |   |   |   |   |   |   |   didnt <= 0
|   |   |   |   |   |   |   |   |   |   |   |   |   |   |   |   work <= 1.30876
|   |   |   |   |   |   |   |   |   |   |   |   |   |   |   |   |   lov <= 1.26981
|   |   |   |   |   |   |   |   |   |   |   |   |   |   |   |   |   |   work <= 0
|   |   |   |   |   |   |   |   |   |   |   |   |   |   |   |   |   |   |   frustr <= 0
|   |   |   |   |   |   |   |   |   |   |   |   |   |   |   |   |   |   |   |   sam <= 0
|   |   |   |   |   |   |   |   |   |   |   |   |   |   |   |   |   |   |   |   |   gam <= 0.184636: Like (10.0/3.0)
|   |   |   |   |   |   |   |   |   |   |   |   |   |   |   |   |   |   |   |   |   gam > 0.184636: NotLike (14.0/1.0)
|   |   |   |   |   |   |   |   |   |   |   |   |   |   |   |   |   |   |   |   sam > 0: NotLike (3.0/1.0)
|   |   |   |   |   |   |   |   |   |   |   |   |   |   |   |   |   |   |   frustr > 0
|   |   |   |   |   |   |   |   |   |   |   |   |   |   |   |   |   |   |   |   wa <= 1.503867: NotLike (5.0/1.0)
|   |   |   |   |   |   |   |   |   |   |   |   |   |   |   |   |   |   |   |   wa > 1.503867: Like (2.0)
|   |   |   |   |   |   |   |   |   |   |   |   |   |   |   |   |   |   work > 0: Like (2.0)
|   |   |   |   |   |   |   |   |   |   |   |   |   |   |   |   |   lov > 1.26981: Like (3.0/1.0)
|   |   |   |   |   |   |   |   |   |   |   |   |   |   |   |   work > 1.30876: NotLike (3.0)
|   |   |   |   |   |   |   |   |   |   |   |   |   |   |   didnt > 0
|   |   |   |   |   |   |   |   |   |   |   |   |   |   |   |   gam <= 0.270487: Like (4.0)
|   |   |   |   |   |   |   |   |   |   |   |   |   |   |   |   gam > 0.270487: NotLike (6.0/1.0)
|   |   |   |   |   |   |   |   |   |   |   |   |   |   amaz > 0: Like (4.0/1.0)
|   |   |   |   |   |   |   |   |   |   |   |   |   perfect > 0: Like (4.0/1.0)
|   |   |   |   |   |   |   |   |   |   |   |   disappoint > 2.095906
|   |   |   |   |   |   |   |   |   |   |   |   |   wa <= 0.64768: Like (2.0)
|   |   |   |   |   |   |   |   |   |   |   |   |   wa > 0.64768: NotLike (9.0/1.0)
|   |   |   |   |   |   |   |   |   |   |   bor > 0: NotLike (5.0/1.0)
|   |   |   |   |   |   |   |   |   |   anno > 0: NotLike (9.0/1.0)
|   |   |   |   |   |   |   |   great > 0
|   |   |   |   |   |   |   |   |   disappointm <= 0
|   |   |   |   |   |   |   |   |   |   amaz <= 0: NotLike (159.0/57.0)
|   |   |   |   |   |   |   |   |   |   amaz > 0
|   |   |   |   |   |   |   |   |   |   |   didnt <= 0
|   |   |   |   |   |   |   |   |   |   |   |   work <= 0: Like (8.0/2.0)
|   |   |   |   |   |   |   |   |   |   |   |   work > 0: NotLike (4.0)
|   |   |   |   |   |   |   |   |   |   |   didnt > 0: Like (6.0)
|   |   |   |   |   |   |   |   |   disappointm > 0
|   |   |   |   |   |   |   |   |   |   gam <= 0.386979: NotLike (11.0)
|   |   |   |   |   |   |   |   |   |   gam > 0.386979: Like (3.0/1.0)
|   |   |   |   |   |   |   awesom > 0
|   |   |   |   |   |   |   |   mone <= 0
|   |   |   |   |   |   |   |   |   unfortun <= 0: Like (27.0/10.0)
|   |   |   |   |   |   |   |   |   unfortun > 0: NotLike (2.0)
|   |   |   |   |   |   |   |   mone > 0: NotLike (3.0)
|   |   |   |   |   |   rpg > 0
|   |   |   |   |   |   |   bor <= 0: Like (38.0/14.0)
|   |   |   |   |   |   |   bor > 0
|   |   |   |   |   |   |   |   rpg <= 3.110347: NotLike (7.0)
|   |   |   |   |   |   |   |   rpg > 3.110347: Like (4.0/1.0)
|   |   |   |   ter > 0
|   |   |   |   |   great <= 0.920801
|   |   |   |   |   |   amaz <= 0: NotLike (345.0/61.0)
|   |   |   |   |   |   amaz > 0
|   |   |   |   |   |   |   wa <= 1.503867
|   |   |   |   |   |   |   |   fantas <= 0: NotLike (10.0/1.0)
|   |   |   |   |   |   |   |   fantas > 0: Like (3.0/1.0)
|   |   |   |   |   |   |   wa > 1.503867: Like (5.0/1.0)
|   |   |   |   |   great > 0.920801
|   |   |   |   |   |   stupid <= 0
|   |   |   |   |   |   |   rent <= 0
|   |   |   |   |   |   |   |   tr <= 0
|   |   |   |   |   |   |   |   |   frustr <= 0: Like (23.0/8.0)
|   |   |   |   |   |   |   |   |   frustr > 0: NotLike (5.0)
|   |   |   |   |   |   |   |   tr > 0: Like (2.0)
|   |   |   |   |   |   |   rent > 0: NotLike (2.0)
|   |   |   |   |   |   stupid > 0: NotLike (4.0)
|   |   |   hor > 0
|   |   |   |   awesom <= 0
|   |   |   |   |   perfect <= 0
|   |   |   |   |   |   rpg <= 0: NotLike (366.0/46.0)
|   |   |   |   |   |   rpg > 0
|   |   |   |   |   |   |   rent <= 0
|   |   |   |   |   |   |   |   anno <= 0
|   |   |   |   |   |   |   |   |   noth <= 0
|   |   |   |   |   |   |   |   |   |   amaz <= 0
|   |   |   |   |   |   |   |   |   |   |   gam <= 0.349477: NotLike (13.0)
|   |   |   |   |   |   |   |   |   |   |   gam > 0.349477
|   |   |   |   |   |   |   |   |   |   |   |   sam <= 0
|   |   |   |   |   |   |   |   |   |   |   |   |   didnt <= 0: Like (4.0/1.0)
|   |   |   |   |   |   |   |   |   |   |   |   |   didnt > 0: NotLike (2.0)
|   |   |   |   |   |   |   |   |   |   |   |   sam > 0: Like (2.0)
|   |   |   |   |   |   |   |   |   |   amaz > 0: Like (2.0)
|   |   |   |   |   |   |   |   |   noth > 0: Like (3.0)
|   |   |   |   |   |   |   |   anno > 0: NotLike (3.0)
|   |   |   |   |   |   |   rent > 0: NotLike (4.0)
|   |   |   |   |   perfect > 0
|   |   |   |   |   |   didnt <= 0
|   |   |   |   |   |   |   bor <= 0
|   |   |   |   |   |   |   |   amaz <= 0
|   |   |   |   |   |   |   |   |   perfect <= 2.124429: NotLike (12.0/1.0)
|   |   |   |   |   |   |   |   |   perfect > 2.124429: Like (3.0/1.0)
|   |   |   |   |   |   |   |   amaz > 0: Like (2.0)
|   |   |   |   |   |   |   bor > 0: Like (2.0)
|   |   |   |   |   |   didnt > 0: Like (4.0)
|   |   |   |   awesom > 0
|   |   |   |   |   awesom <= 2.021038
|   |   |   |   |   |   fantas <= 0
|   |   |   |   |   |   |   amaz <= 0: NotLike (14.0/1.0)
|   |   |   |   |   |   |   amaz > 0: Like (2.0)
|   |   |   |   |   |   fantas > 0: Like (4.0)
|   |   |   |   |   awesom > 2.021038: Like (6.0)
|   |   poor > 0
|   |   |   rpg <= 0
|   |   |   |   perfect <= 0
|   |   |   |   |   amaz <= 0: NotLike (447.0/46.0)
|   |   |   |   |   amaz > 0
|   |   |   |   |   |   rent <= 0
|   |   |   |   |   |   |   great <= 0: NotLike (12.0/1.0)
|   |   |   |   |   |   |   great > 0
|   |   |   |   |   |   |   |   hor <= 0
|   |   |   |   |   |   |   |   |   problem <= 0: Like (6.0)
|   |   |   |   |   |   |   |   |   problem > 0: NotLike (3.0/1.0)
|   |   |   |   |   |   |   |   hor > 0: NotLike (2.0)
|   |   |   |   |   |   rent > 0: Like (2.0)
|   |   |   |   perfect > 0
|   |   |   |   |   stupid <= 0
|   |   |   |   |   |   perfect <= 2.124429
|   |   |   |   |   |   |   addict <= 0
|   |   |   |   |   |   |   |   didnt <= 0
|   |   |   |   |   |   |   |   |   poor <= 2.364792
|   |   |   |   |   |   |   |   |   |   unfortun <= 0
|   |   |   |   |   |   |   |   |   |   |   gam <= 0.184636: Like (2.0)
|   |   |   |   |   |   |   |   |   |   |   gam > 0.184636: NotLike (9.0/1.0)
|   |   |   |   |   |   |   |   |   |   unfortun > 0: Like (3.0/1.0)
|   |   |   |   |   |   |   |   |   poor > 2.364792: Like (2.0)
|   |   |   |   |   |   |   |   didnt > 0: NotLike (3.0)
|   |   |   |   |   |   |   addict > 0: Like (2.0)
|   |   |   |   |   |   perfect > 2.124429: Like (7.0)
|   |   |   |   |   stupid > 0: NotLike (5.0)
|   |   |   rpg > 0
|   |   |   |   hor <= 0
|   |   |   |   |   return <= 0
|   |   |   |   |   |   stupid <= 0
|   |   |   |   |   |   |   sam <= 1.46365
|   |   |   |   |   |   |   |   problem <= 1.597955
|   |   |   |   |   |   |   |   |   lov <= 0
|   |   |   |   |   |   |   |   |   |   bor <= 0
|   |   |   |   |   |   |   |   |   |   |   rent <= 0: Like (19.0/4.0)
|   |   |   |   |   |   |   |   |   |   |   rent > 0: NotLike (3.0/1.0)
|   |   |   |   |   |   |   |   |   |   bor > 0: NotLike (2.0)
|   |   |   |   |   |   |   |   |   lov > 0: Like (4.0)
|   |   |   |   |   |   |   |   problem > 1.597955: NotLike (2.0)
|   |   |   |   |   |   |   sam > 1.46365: NotLike (2.0)
|   |   |   |   |   |   stupid > 0: NotLike (2.0)
|   |   |   |   |   return > 0: NotLike (2.0)
|   |   |   |   hor > 0: NotLike (3.0)
|   wast > 0
|   |   awesom <= 0
|   |   |   poor <= 0
|   |   |   |   gam <= 0.386979: NotLike (793.0/122.0)
|   |   |   |   gam > 0.386979
|   |   |   |   |   return <= 0
|   |   |   |   |   |   lov <= 1.26981
|   |   |   |   |   |   |   ter <= 0
|   |   |   |   |   |   |   |   wa <= 0.64768
|   |   |   |   |   |   |   |   |   lov <= 0: Like (21.0/5.0)
|   |   |   |   |   |   |   |   |   lov > 0: NotLike (3.0/1.0)
|   |   |   |   |   |   |   |   wa > 0.64768
|   |   |   |   |   |   |   |   |   produc <= 0
|   |   |   |   |   |   |   |   |   |   gam <= 0.503471: NotLike (19.0)
|   |   |   |   |   |   |   |   |   |   gam > 0.503471
|   |   |   |   |   |   |   |   |   |   |   gam <= 0.553908: Like (2.0)
|   |   |   |   |   |   |   |   |   |   |   gam > 0.553908: NotLike (3.0)
|   |   |   |   |   |   |   |   |   produc > 0: Like (3.0)
|   |   |   |   |   |   |   ter > 0: NotLike (4.0)
|   |   |   |   |   |   lov > 1.26981: Like (4.0)
|   |   |   |   |   return > 0: NotLike (5.0)
|   |   |   poor > 0: NotLike (64.0/1.0)
|   |   awesom > 0
|   |   |   fantas <= 0
|   |   |   |   lov <= 1.26981
|   |   |   |   |   wa <= 0
|   |   |   |   |   |   gam <= 0.184636: NotLike (3.0/1.0)
|   |   |   |   |   |   gam > 0.184636: Like (10.0/3.0)
|   |   |   |   |   wa > 0: NotLike (16.0/1.0)
|   |   |   |   lov > 1.26981: Like (3.0)
|   |   |   fantas > 0: Like (2.0)
worst > 0
|   amaz <= 0: NotLike (704.0/82.0)
|   amaz > 0
|   |   gam <= 0.386979
|   |   |   great <= 0: NotLike (10.0/3.0)
|   |   |   great > 0: Like (8.0)
|   |   gam > 0.386979: NotLike (12.0)

Number of Leaves  : 	488

Size of the tree : 	975


Time taken to build model: 20.27 seconds

=== Predictions on test split ===

inst#,    actual, predicted, error, probability distribution
     1  2:NotLike  2:NotLike          0.092 *0.908
     2  2:NotLike  2:NotLike          0.292 *0.708
     3     1:Like     1:Like         *0.776  0.224
     4  2:NotLike  2:NotLike          0.453 *0.547
     5     1:Like  2:NotLike      +   0.453 *0.547
     6  2:NotLike  2:NotLike          0.085 *0.915
     7     1:Like     1:Like         *0.592  0.408
     8     1:Like     1:Like         *0.706  0.294
     9  2:NotLike  2:NotLike          0.338 *0.662
    10     1:Like  2:NotLike      +   0.453 *0.547
    11     1:Like     1:Like         *0.592  0.408
    12     1:Like     1:Like         *0.787  0.213
    13     1:Like     1:Like         *0.825  0.175
    14     1:Like     1:Like         *0.887  0.113
    15  2:NotLike  2:NotLike          0.175 *0.825
    16  2:NotLike  2:NotLike          0.115 *0.885
    17     1:Like     1:Like         *0.825  0.175
    18     1:Like  2:NotLike      +   0.402 *0.598
    19     1:Like     1:Like         *0.592  0.408
    20     1:Like     1:Like         *0.853  0.147
    21  2:NotLike     1:Like      +  *0.776  0.224
    22  2:NotLike     1:Like      +  *0.776  0.224
    23  2:NotLike  2:NotLike          0.092 *0.908
    24     1:Like  2:NotLike      +   0.228 *0.772
    25     1:Like     1:Like         *0.741  0.259
    26  2:NotLike  2:NotLike          0.089 *0.911
    27  2:NotLike  2:NotLike          0.092 *0.908
    28     1:Like     1:Like         *0.592  0.408
    29  2:NotLike  2:NotLike          0.25  *0.75 
    30     1:Like     1:Like         *0.971  0.029
    31     1:Like     1:Like         *0.825  0.175
    32     1:Like     1:Like         *0.887  0.113
    33     1:Like     1:Like         *0.776  0.224
    34  2:NotLike  2:NotLike          0.178 *0.822
    35  2:NotLike  2:NotLike          0.091 *0.909
    36  2:NotLike     1:Like      +  *0.592  0.408
    37  2:NotLike  2:NotLike          0.115 *0.885
    38     1:Like     1:Like         *0.592  0.408
    39  2:NotLike     1:Like      +  *0.551  0.449
    40  2:NotLike  2:NotLike          0.115 *0.885
    41  2:NotLike     1:Like      +  *0.776  0.224
    42  2:NotLike  2:NotLike          0.092 *0.908
    43     1:Like  2:NotLike      +   0.203 *0.797
    44     1:Like     1:Like         *0.592  0.408
    45     1:Like  2:NotLike      +   0.338 *0.662
    46     1:Like     1:Like         *0.849  0.151
    47  2:NotLike  2:NotLike          0.085 *0.915
    48     1:Like     1:Like         *0.592  0.408
    49  2:NotLike  2:NotLike          0.287 *0.713
    50  2:NotLike  2:NotLike          0.188 *0.813
    51  2:NotLike  2:NotLike          0.085 *0.915
    52     1:Like  2:NotLike      +   0.409 *0.591
    53     1:Like  2:NotLike      +   0.111 *0.889
    54     1:Like  2:NotLike      +   0.292 *0.708
    55     1:Like  2:NotLike      +   0.196 *0.804
    56  2:NotLike     1:Like      +  *0.662  0.338
    57  2:NotLike  2:NotLike          0.203 *0.797
    58  2:NotLike  2:NotLike          0.453 *0.547
    59     1:Like  2:NotLike      +   0.409 *0.591
    60  2:NotLike     1:Like      +  *0.889  0.111
    61     1:Like     1:Like         *0.75   0.25 
    62     1:Like     1:Like         *0.592  0.408
    63     1:Like  2:NotLike      +   0.196 *0.804
    64  2:NotLike  2:NotLike          0.293 *0.707
    65     1:Like  2:NotLike      +   0.221 *0.779
    66     1:Like     1:Like         *0.825  0.175
    67     1:Like     1:Like         *0.825  0.175
    68  2:NotLike     1:Like      +  *0.825  0.175
    69     1:Like     1:Like         *0.825  0.175
    70  2:NotLike  2:NotLike          0.152 *0.848
    71     1:Like     1:Like         *0.825  0.175
    72  2:NotLike     1:Like      +  *0.592  0.408
    73     1:Like     1:Like         *0.825  0.175
    74     1:Like     1:Like         *0.579  0.421
    75  2:NotLike  2:NotLike          0.228 *0.772
    76     1:Like     1:Like         *0.592  0.408
    77  2:NotLike     1:Like      +  *0.592  0.408
    78  2:NotLike     1:Like      +  *0.825  0.175
    79  2:NotLike  2:NotLike          0.292 *0.708
    80     1:Like     1:Like         *0.776  0.224
    81  2:NotLike  2:NotLike          0.1   *0.9  
    82     1:Like     1:Like         *0.662  0.338
    83     1:Like     1:Like         *0.592  0.408
    84     1:Like     1:Like         *0.776  0.224
    85     1:Like  2:NotLike      +   0.3   *0.7  
    86  2:NotLike     1:Like      +  *0.825  0.175
    87  2:NotLike     1:Like      +  *0.592  0.408
    88     1:Like     1:Like         *1      0    
    89  2:NotLike  2:NotLike          0.092 *0.908
    90  2:NotLike  2:NotLike          0.115 *0.885
    91  2:NotLike     1:Like      +  *0.592  0.408
    92  2:NotLike  2:NotLike          0.115 *0.885
    93  2:NotLike     1:Like      +  *0.849  0.151
    94  2:NotLike  2:NotLike          0.115 *0.885
    95     1:Like  2:NotLike      +   0.287 *0.713
    96     1:Like     1:Like         *0.658  0.342
    97  2:NotLike  2:NotLike          0.267 *0.733
    98     1:Like     1:Like         *0.592  0.408
    99  2:NotLike     1:Like      +  *0.776  0.224
   100     1:Like     1:Like         *0.592  0.408
   101     1:Like     1:Like         *0.592  0.408
   102  2:NotLike  2:NotLike          0.336 *0.664
   103     1:Like  2:NotLike      +   0.173 *0.827
   104     1:Like     1:Like         *0.825  0.175
   105  2:NotLike     1:Like      +  *0.776  0.224
   106     1:Like     1:Like         *0.758  0.242
   107     1:Like     1:Like         *0.849  0.151
   108     1:Like  2:NotLike      +   0.338 *0.662
   109     1:Like     1:Like         *0.825  0.175
   110     1:Like  2:NotLike      +   0.203 *0.797
   111     1:Like  2:NotLike      +   0.221 *0.779
   112     1:Like     1:Like         *0.825  0.175
   113  2:NotLike     1:Like      +  *0.853  0.147
   114  2:NotLike  2:NotLike          0.453 *0.547
   115     1:Like     1:Like         *0.776  0.224
   116  2:NotLike  2:NotLike          0.173 *0.827
   117  2:NotLike     1:Like      +  *0.776  0.224
   118  2:NotLike     1:Like      +  *0.585  0.415
   119  2:NotLike  2:NotLike          0.203 *0.797
   120     1:Like     1:Like         *0.776  0.224
   121  2:NotLike  2:NotLike          0.175 *0.825
   122  2:NotLike     1:Like      +  *0.787  0.213
   123     1:Like     1:Like         *0.776  0.224
   124     1:Like     1:Like         *0.592  0.408
   125  2:NotLike     1:Like      +  *0.592  0.408
   126     1:Like     1:Like         *0.853  0.147
   127     1:Like     1:Like         *0.592  0.408
   128  2:NotLike  2:NotLike          0.292 *0.708
   129  2:NotLike  2:NotLike          0     *1    
   130  2:NotLike  2:NotLike          0.203 *0.797
   131     1:Like     1:Like         *0.65   0.35 
   132     1:Like  2:NotLike      +   0.15  *0.85 
   133  2:NotLike     1:Like      +  *0.776  0.224
   134     1:Like     1:Like         *0.849  0.151
   135     1:Like     1:Like         *0.853  0.147
   136     1:Like     1:Like         *0.592  0.408
   137     1:Like  2:NotLike      +   0.368 *0.632
   138     1:Like     1:Like         *0.592  0.408
   139     1:Like     1:Like         *0.887  0.113
   140     1:Like  2:NotLike      +   0.167 *0.833
   141  2:NotLike     1:Like      +  *0.592  0.408
   142     1:Like  2:NotLike      +   0.092 *0.908
   143     1:Like     1:Like         *0.825  0.175
   144     1:Like     1:Like         *0.592  0.408
   145     1:Like     1:Like         *0.592  0.408
   146  2:NotLike  2:NotLike          0.196 *0.804
   147  2:NotLike  2:NotLike          0.115 *0.885
   148     1:Like     1:Like         *0.636  0.364
   149     1:Like  2:NotLike      +   0.196 *0.804
   150     1:Like     1:Like         *0.853  0.147
   151     1:Like     1:Like         *0.765  0.235
